{"internalDocumentIDStore":{"internalIdToId":["1de6c1ac21f65c1072c21d509d375add","8dc7abf02414bd79395eeb495c856b5f","2d17f586afb47a0cbfb886b74d5d9745"]},"index":{"indexes":{"id":{"type":"Radix","node":{"w":"","s":"","c":{"1":{"w":"1de6c1ac21f65c1072c21d509d375add","s":"1de6c1ac21f65c1072c21d509d375add","c":{},"d":[1],"e":true},"2":{"w":"2d17f586afb47a0cbfb886b74d5d9745","s":"2d17f586afb47a0cbfb886b74d5d9745","c":{},"d":[3],"e":true},"8":{"w":"8dc7abf02414bd79395eeb495c856b5f","s":"8dc7abf02414bd79395eeb495c856b5f","c":{},"d":[2],"e":true}},"d":[],"e":false},"isArray":false},"title":{"type":"Radix","node":{"w":"","s":"","c":{"i":{"w":"info","s":"info","c":{},"d":[1],"e":true},"r":{"w":"readme","s":"readme","c":{},"d":[2],"e":true},"w":{"w":"worldspan","s":"worldspan","c":{},"d":[3],"e":true},"l":{"w":"lh-ls-lx","s":"lh-ls-lx","c":{},"d":[3],"e":true},"p":{"w":"pricing","s":"pricing","c":{},"d":[3],"e":true}},"d":[],"e":false},"isArray":false},"path":{"type":"Radix","node":{"w":"","s":"","c":{"n":{"w":"nvim","s":"nvim","c":{},"d":[1],"e":true},"i":{"w":"info","s":"info","c":{},"d":[1],"e":true},"m":{"w":"m","s":"m","c":{"d":{"w":"md","s":"d","c":{},"d":[1,2,3],"e":true},"e":{"w":"methods","s":"ethods","c":{},"d":[3],"e":true}},"d":[],"e":false},"r":{"w":"readme","s":"readme","c":{},"d":[2],"e":true},"w":{"w":"worldspan","s":"worldspan","c":{},"d":[3],"e":true},"l":{"w":"lh-ls-lx","s":"lh-ls-lx","c":{},"d":[3],"e":true},"p":{"w":"pricing","s":"pricing","c":{},"d":[3],"e":true}},"d":[],"e":false},"isArray":false},"content":{"type":"Radix","node":{"w":"","s":"","c":{"0":{"w":"0","s":"0","c":{"0":{"w":"00","s":"0","c":{},"d":[3],"e":true},"1":{"w":"01","s":"1","c":{},"d":[1,2,3],"e":true},"6":{"w":"06","s":"6","c":{},"d":[3],"e":true},"7":{"w":"07","s":"7","c":{},"d":[1,2,3],"e":true},"8":{"w":"08","s":"8","c":{},"d":[1,3],"e":true}},"d":[],"e":false},"1":{"w":"1","s":"1","c":{"4":{"w":"14709995","s":"4709995","c":{},"d":[3],"e":true},"5":{"w":"15","s":"5","c":{},"d":[1],"e":true},"7":{"w":"17","s":"7","c":{},"d":[1],"e":true}},"d":[1,3],"e":true},"2":{"w":"2","s":"2","c":{"0":{"w":"20","s":"0","c":{"2":{"w":"2025","s":"25","c":{},"d":[1,2,3],"e":true}},"d":[2],"e":true},"2":{"w":"22","s":"2","c":{},"d":[1],"e":true}},"d":[1,3],"e":true},"3":{"w":"3","s":"3","c":{"4":{"w":"34","s":"4","c":{},"d":[2],"e":true},"8":{"w":"38","s":"8","c":{},"d":[1],"e":true}},"d":[1,3],"e":true},"4":{"w":"4","s":"4","c":{"0":{"w":"40","s":"0","c":{},"d":[3],"e":true},"7":{"w":"47","s":"7","c":{},"d":[3],"e":true},"p":{"w":"4p","s":"p","c":{},"d":[3],"e":true}},"d":[3],"e":true},"5":{"w":"5","s":"5","c":{"0":{"w":"50","s":"0","c":{},"d":[3],"e":true}},"d":[3],"e":true},"6":{"w":"6","s":"6","c":{},"d":[3],"e":true},"7":{"w":"7","s":"7","c":{},"d":[3],"e":true},"8":{"w":"8","s":"8","c":{},"d":[3],"e":true},"9":{"w":"9","s":"9","c":{},"d":[3],"e":true},"n":{"w":"n","s":"n","c":{"o":{"w":"note","s":"ote","c":{},"d":[1,2,3],"e":true},"e":{"w":"neovim","s":"eovim","c":{},"d":[1],"e":true},"v":{"w":"nvim","s":"vim","c":{},"d":[1],"e":true},"i":{"w":"nina","s":"ina","c":{},"d":[3],"e":true},"u":{"w":"number","s":"umber","c":{},"d":[3],"e":true}},"d":[],"e":false},"t":{"w":"t","s":"t","c":{"i":{"w":"title","s":"itle","c":{},"d":[1,2,3],"e":true},"h":{"w":"the","s":"he","c":{},"d":[3],"e":true},"o":{"w":"to","s":"o","c":{},"d":[3],"e":true},"r":{"w":"travel","s":"ravel","c":{},"d":[3],"e":true}},"d":[],"e":false},"i":{"w":"i","s":"i","c":{"n":{"w":"in","s":"n","c":{"f":{"w":"info","s":"fo","c":{},"d":[1],"e":true},"s":{"w":"install","s":"stall","c":{},"d":[1],"e":true},"v":{"w":"invoke-","s":"voke-","c":{"r":{"w":"invoke-restmethod","s":"restmethod","c":{},"d":[1],"e":true},"e":{"w":"invoke-expression","s":"expression","c":{},"d":[1],"e":true}},"d":[],"e":false},"b":{"w":"inbound","s":"bound","c":{},"d":[3],"e":true}},"d":[],"e":false},"s":{"w":"is","s":"s","c":{},"d":[3],"e":true}},"d":[],"e":false},"m":{"w":"m","s":"m","c":{"e":{"w":"metadata","s":"etadata","c":{},"d":[1,2,3],"e":true},"o":{"w":"mo","s":"o","c":{"d":{"w":"modified","s":"dified","c":{},"d":[1,2,3],"e":true},"v":{"w":"move","s":"ve","c":{},"d":[3],"e":true}},"d":[],"e":false},"k":{"w":"mklink","s":"klink","c":{},"d":[1],"e":true},"d":{"w":"md","s":"d","c":{},"d":[3],"e":true}},"d":[],"e":false},"c":{"w":"c","s":"c","c":{"r":{"w":"create","s":"reate","c":{"d":{"w":"created","s":"d","c":{},"d":[1,2,3],"e":true}},"d":[1],"e":true},"o":{"w":"co","s":"o","c":{"n":{"w":"content","s":"ntent","c":{},"d":[1,2,3],"e":true},"u":{"w":"country","s":"untry","c":{},"d":[3],"e":true}},"d":[],"e":false},"u":{"w":"currentuser","s":"urrentuser","c":{},"d":[1],"e":true},"m":{"w":"cmd","s":"md","c":{},"d":[1],"e":true},"v":{"w":"cv","s":"v","c":{},"d":[3],"e":true},"h":{"w":"ch","s":"h","c":{"o":{"w":"choose","s":"oose","c":{},"d":[3],"e":true},"e":{"w":"check","s":"eck","c":{},"d":[3],"e":true}},"d":[],"e":false},"l":{"w":"clh","s":"lh","c":{},"d":[3],"e":true},"t":{"w":"cts","s":"ts","c":{},"d":[3],"e":true},"a":{"w":"carrier","s":"arrier","c":{},"d":[3],"e":true}},"d":[1],"e":true},"b":{"w":"b","s":"b","c":{"l":{"w":"block","s":"lock","c":{},"d":[1,2,3],"e":true},"a":{"w":"ba","s":"a","c":{"g":{"w":"bag","s":"g","c":{},"d":[3],"e":true},"s":{"w":"basis","s":"sis","c":{},"d":[3],"e":true}},"d":[],"e":false},"o":{"w":"both","s":"oth","c":{},"d":[3],"e":true}},"d":[],"e":false},"s":{"w":"s","s":"s","c":{"3":{"w":"s3-4-qh297ncv","s":"3-4-qh297ncv","c":{},"d":[3],"e":true},"c":{"w":"scoop","s":"coop","c":{},"d":[1],"e":true},"e":{"w":"se","s":"e","c":{"t":{"w":"set-executionpolicy","s":"t-executionpolicy","c":{},"d":[1],"e":true},"a":{"w":"seasonality","s":"asonality","c":{},"d":[3],"e":true}},"d":[3],"e":true},"h":{"w":"sh","s":"h","c":{},"d":[1],"e":true},"y":{"w":"symbolic","s":"ymbolic","c":{},"d":[1],"e":true},"t":{"w":"st","s":"t","c":{"e":{"w":"steps","s":"eps","c":{},"d":[3],"e":true},"o":{"w":"store","s":"ore","c":{},"d":[3],"e":true},"a":{"w":"star","s":"ar","c":{},"d":[3],"e":true}},"d":[],"e":false},"a":{"w":"sa","s":"a","c":{"m":{"w":"same","s":"me","c":{},"d":[3],"e":true},"v":{"w":"save","s":"ve","c":{},"d":[3],"e":true}},"d":[],"e":false}},"d":[],"e":false},"p":{"w":"p","s":"p","c":{"s":{"w":"ps","s":"s","c":{},"d":[1],"e":true},"o":{"w":"powershell","s":"owershell","c":{},"d":[1],"e":true},"r":{"w":"pri","s":"ri","c":{"v":{"w":"privileges","s":"vileges","c":{},"d":[1],"e":true},"c":{"w":"pric","s":"c","c":{"i":{"w":"pricing","s":"ing","c":{},"d":[3],"e":true},"e":{"w":"price","s":"e","c":{},"d":[3],"e":true}},"d":[],"e":false}},"d":[],"e":false},"a":{"w":"partners","s":"artners","c":{},"d":[3],"e":true}},"d":[],"e":false},"d":{"w":"d","s":"d","c":{"2":{"w":"d29aug","s":"29aug","c":{},"d":[3],"e":true},"a":{"w":"da","s":"a","c":{},"d":[3],"e":true},"o":{"w":"do","s":"o","c":{"n":{"w":"don't","s":"n't","c":{},"d":[3],"e":true},"w":{"w":"down","s":"wn","c":{},"d":[3],"e":true}},"d":[],"e":false},"k":{"w":"dk","s":"k","c":{},"d":[3],"e":true}},"d":[1],"e":true},"o":{"w":"o","s":"o","c":{"b":{"w":"obsidian-mondee","s":"bsidian-mondee","c":{},"d":[1,2],"e":true},"u":{"w":"outbound","s":"utbound","c":{},"d":[3],"e":true},"n":{"w":"one","s":"ne","c":{},"d":[3],"e":true},"f":{"w":"office","s":"ffice","c":{},"d":[3],"e":true}},"d":[],"e":false},"-":{"w":"-","s":"-","c":{"e":{"w":"-executionpolicy","s":"executionpolicy","c":{},"d":[1],"e":true},"s":{"w":"-s","s":"s","c":{"1":{"w":"-s1-2-vk357ncv","s":"1-2-vk357ncv","c":{},"d":[3],"e":true},"c":{"w":"-scope","s":"cope","c":{},"d":[1],"e":true}},"d":[],"e":false},"u":{"w":"-uri","s":"uri","c":{},"d":[1],"e":true}},"d":[],"e":false},"r":{"w":"re","s":"re","c":{"m":{"w":"remotesigned","s":"motesigned","c":{},"d":[1],"e":true},"q":{"w":"requ","s":"qu","c":{"i":{"w":"requires","s":"ires","c":{},"d":[1],"e":true},"e":{"w":"request","s":"est","c":{},"d":[3],"e":true}},"d":[],"e":false},"a":{"w":"readme","s":"adme","c":{},"d":[2],"e":true}},"d":[],"e":false},"h":{"w":"https","s":"https","c":{},"d":[1],"e":true},"g":{"w":"get","s":"get","c":{},"d":[1],"e":true},"a":{"w":"a","s":"a","c":{"d":{"w":"ad","s":"d","c":{"m":{"w":"admin","s":"min","c":{},"d":[1],"e":true},"d":{"w":"add","s":"d","c":{},"d":[3],"e":true}},"d":[],"e":false},"l":{"w":"alh","s":"lh","c":{},"d":[3],"e":true},"n":{"w":"an","s":"n","c":{"d":{"w":"and","s":"d","c":{},"d":[3],"e":true},"o":{"w":"another","s":"other","c":{},"d":[3],"e":true}},"d":[],"e":false},"t":{"w":"at","s":"t","c":{},"d":[3],"e":true},"s":{"w":"as","s":"s","c":{"k":{"w":"ask","s":"k","c":{},"d":[3],"e":true}},"d":[3],"e":true}},"d":[1],"e":true},"l":{"w":"l","s":"l","c":{"i":{"w":"link","s":"ink","c":{},"d":[1],"e":true},"o":{"w":"lo","s":"o","c":{"c":{"w":"localappdata","s":"calappdata","c":{},"d":[1],"e":true},"o":{"w":"look","s":"ok","c":{},"d":[3],"e":true}},"d":[],"e":false},"h":{"w":"lh-ls-lx","s":"h-ls-lx","c":{},"d":[3],"e":true}},"d":[],"e":false},"v":{"w":"v","s":"v","c":{"i":{"w":"via","s":"ia","c":{},"d":[1],"e":true},"a":{"w":"validating","s":"alidating","c":{},"d":[3],"e":true}},"d":[],"e":false},"w":{"w":"w","s":"w","c":{"o":{"w":"worldspan","s":"orldspan","c":{},"d":[3],"e":true},"h":{"w":"when","s":"hen","c":{},"d":[3],"e":true},"i":{"w":"with","s":"ith","c":{},"d":[3],"e":true},"a":{"w":"waiver","s":"aiver","c":{},"d":[3],"e":true}},"d":[],"e":false},"f":{"w":"f","s":"f","c":{"q":{"w":"fq","s":"q","c":{"d":{"w":"fqd","s":"d","c":{"d":{"w":"fqddtwtia","s":"dtwtia","c":{},"d":[3],"e":true}},"d":[3],"e":true},"n":{"w":"fqn12","s":"n12","c":{},"d":[3],"e":true}},"d":[],"e":false},"i":{"w":"first","s":"irst","c":{},"d":[3],"e":true},"a":{"w":"fare","s":"are","c":{},"d":[3],"e":true},"o":{"w":"for","s":"or","c":{},"d":[3],"e":true},"e":{"w":"fees","s":"ees","c":{},"d":[3],"e":true},"r":{"w":"from","s":"rom","c":{},"d":[3],"e":true}},"d":[],"e":false},"y":{"w":"you","s":"you","c":{},"d":[3],"e":true},"u":{"w":"u","s":"u","c":{"s":{"w":"use","s":"se","c":{},"d":[3],"e":true},"p":{"w":"update","s":"pdate","c":{},"d":[3],"e":true}},"d":[],"e":false},"e":{"w":"e","s":"e","c":{"n":{"w":"entry","s":"ntry","c":{},"d":[3],"e":true},"r":{"w":"error","s":"rror","c":{},"d":[3],"e":true}},"d":[],"e":false},"k":{"w":"k6","s":"k6","c":{},"d":[3],"e":true}},"d":[],"e":false},"isArray":false},"embeddingModel":{"type":"Radix","node":{"w":"","s":"","c":{"t":{"w":"text-embedding-004","s":"text-embedding-004","c":{},"d":[1,2,3],"e":true}},"d":[],"e":false},"isArray":false},"created_at":{"type":"AVL","node":{"root":{"k":1751374224056,"v":[1],"l":{"k":0,"v":[],"l":null,"r":null,"h":0},"r":{"k":1751374224071,"v":[2],"l":null,"r":{"k":1751374224074,"v":[3],"l":null,"r":null,"h":0},"h":1},"h":2}},"isArray":false},"ctime":{"type":"AVL","node":{"root":{"k":1751369660053,"v":[2],"l":{"k":0,"v":[],"l":null,"r":null,"h":0},"r":{"k":1751372117671,"v":[1],"l":{"k":1751370460375,"v":[3],"l":null,"r":null,"h":0},"r":null,"h":1},"h":2}},"isArray":false},"mtime":{"type":"AVL","node":{"root":{"k":1751369660053,"v":[2],"l":{"k":0,"v":[],"l":null,"r":null,"h":0},"r":{"k":1751372558581,"v":[1],"l":{"k":1751371626041,"v":[3],"l":null,"r":null,"h":0},"r":null,"h":1},"h":2}},"isArray":false},"tags":{"type":"Radix","node":{"w":"","s":"","c":{},"d":[],"e":false},"isArray":true},"extension":{"type":"Radix","node":{"w":"","s":"","c":{"m":{"w":"md","s":"md","c":{},"d":[1,2,3],"e":true}},"d":[],"e":false},"isArray":false}},"vectorIndexes":{"embedding":{"size":768,"vectors":{"1de6c1ac21f65c1072c21d509d375add":[0.9999686219031441,[0.01181886252015829,0.002008895855396986,-0.06375773251056671,-0.004318448714911938,0.006311322562396526,-0.008460544981062412,0.030644813552498817,-0.006061360705643892,0.011136745102703571,0.0195880439132452,-0.007232459727674723,0.04735613614320755,-0.000831647019367665,-0.027839405462145805,0.010867279954254627,-0.044212836772203445,0.023170510306954384,-0.008048323914408684,-0.07612399011850357,0.03906627371907234,0.008249981328845024,0.039768286049366,-0.03760995715856552,-0.03018287755548954,-0.047967441380023956,-0.058938074856996536,0.05295751616358757,-0.037655774503946304,-0.021440403535962105,-0.06691212207078934,-0.007336538750678301,0.0812554582953453,0.0053411368280649185,-0.008777618408203125,-0.0027035996317863464,0.022065188735723495,-0.005338827148079872,0.0377410352230072,0.005663145333528519,-0.00846867449581623,-0.06105795130133629,-0.12326433509588242,-0.08192431181669235,0.08293076604604721,0.0319916196167469,0.02219931222498417,0.006964409723877907,0.05633688345551491,-0.0552423931658268,0.025077302008867264,0.07689143717288971,0.0037655411288142204,-0.023007851094007492,0.03952723369002342,-0.007814803160727024,-0.07649509608745575,-0.05186227709054947,-0.06859993934631348,0.052047379314899445,-0.04278907552361488,-0.014706606045365334,-0.015509742312133312,-0.0111261997371912,0.010356798768043518,-0.07773422449827194,-0.006384251173585653,-0.0065132672898471355,-0.012063463218510151,-0.04459565877914429,0.026450548321008682,-0.06294212490320206,-0.027752304449677467,-0.03444577008485794,-0.029458338394761086,-0.03635537251830101,0.094954714179039,-0.028670819476246834,0.007281849626451731,0.016159262508153915,0.063303641974926,0.028849171474575996,-0.0022192923352122307,0.06309706717729568,0.044376492500305176,0.008494268171489239,0.04530447721481323,-0.007460257038474083,-0.028408948332071304,-0.010076447390019894,-0.0389251671731472,0.033705320209264755,-0.00634281849488616,0.006326904054731131,-0.005466772709041834,0.10214510560035706,-0.007641235366463661,-0.07286853343248367,-0.09844041615724564,0.0010390263050794601,-0.010149589739739895,0.012805121019482613,0.006217409856617451,0.009151198901236057,-0.03743412345647812,0.04974384605884552,-0.001824864069931209,-0.02086915634572506,-0.03627334162592888,-0.0882103443145752,-0.04571477323770523,-0.021432196721434593,0.010992586612701416,0.05241471529006958,0.0313812792301178,-0.031401827931404114,-0.026502760127186775,0.02877010591328144,0.017055336385965347,-0.006091425660997629,-0.016652654856443405,0.011420981027185917,0.004180717281997204,0.03175833448767662,0.03432687744498253,0.024917298927903175,0.0024144782219082117,-0.009401252493262291,-0.009704031981527805,0.012816278263926506,-0.015452614985406399,0.02342628501355648,-0.06808721274137497,0.010933968238532543,0.00999423023313284,-0.00535212829709053,0.028447218239307404,0.027636760845780373,0.01723487302660942,0.0748915746808052,0.05865870416164398,-0.048239607363939285,-0.0433211550116539,-0.04984307289123535,0.06486217677593231,0.04545723274350166,-0.028854919597506523,0.01900450326502323,0.036907974630594254,-0.02616177499294281,0.033475473523139954,-0.015307647176086903,0.016643144190311432,-0.013144438154995441,0.02761298418045044,-0.03774953633546829,-0.014783386141061783,0.041300538927316666,-0.07158217579126358,-0.033203188329935074,0.03079569898545742,0.04314589127898216,-0.005423595663160086,0.022157659754157066,0.011668874882161617,-0.01706748455762863,-0.06101006269454956,-0.04688437655568123,-0.03773330897092819,-0.014565431512892246,0.03427881747484207,-0.026427602395415306,-0.08713935315608978,-0.04129011183977127,-0.01478764321655035,-0.004929988645017147,0.04478992894291878,0.0021386933512985706,0.023771880194544792,-0.049756914377212524,0.008555994369089603,0.057004403322935104,0.037768490612506866,0.004331860225647688,-0.054683614522218704,0.011909842491149902,0.027344493195414543,-0.061368294060230255,0.06760786473751068,0.0011716547887772322,0.03637082874774933,-0.030333155766129494,0.008493205532431602,0.03003847412765026,0.03518831729888916,-0.02125016786158085,0.011997762136161327,0.036719776690006256,-0.04451902583241463,-0.044054847210645676,-0.027392562478780746,-0.0076642450876533985,0.010930449701845646,-0.08975359052419662,0.00126547587569803,-0.02952413819730282,0.037110500037670135,-0.018312539905309677,-0.010101680643856525,0.016316819936037064,-0.012188661843538284,0.012530107982456684,-0.011455672793090343,0.03623885288834572,0.02552923373878002,0.020057590678334236,-0.01954467222094536,0.023657502606511116,0.05286913365125656,0.11463037133216858,-0.0050538163632154465,-0.031667519360780716,0.0013484153896570206,-0.04509735107421875,0.012312066741287708,-0.0037019962910562754,0.03400954604148865,-0.04052668437361717,-0.00703764334321022,-0.01696203649044037,-0.04351786524057388,-0.013387221843004227,0.05591108277440071,0.0038071363233029842,0.03510598838329315,0.04493749514222145,0.017055239528417587,0.022987281903624535,-0.031001225113868713,-0.06965958327054977,0.03437517583370209,0.0014217864954844117,0.05590801313519478,0.04727286100387573,0.03822775557637215,0.04907212778925896,-0.009324372746050358,0.01467111986130476,0.025487206876277924,0.01245562918484211,-0.026639943942427635,0.045837558805942535,-0.03647017106413841,-0.002285868162289262,-0.0210061427205801,-0.07508725672960281,-0.015601024962961674,0.04615624248981476,-0.028327366337180138,0.03700561821460724,-0.010579319670796394,0.08879793435335159,-0.01321056205779314,-0.06082431599497795,-0.037312015891075134,-0.03562330827116966,-0.05993582308292389,0.005276369396597147,-0.037209540605545044,0.00846882350742817,-0.013229019939899445,0.07764207571744919,-0.06544957309961319,-0.030185353010892868,-0.036133553832769394,-0.10379946231842041,0.021508503705263138,-0.04246395081281662,-0.011015819385647774,0.005999204237014055,-0.09406837821006775,-0.011442703194916248,0.003192438278347254,-0.030042458325624466,-0.0399506576359272,0.0382319800555706,-0.03546929359436035,-0.020480826497077942,-0.010948711074888706,-0.045509543269872665,-0.003442533779889345,0.018029864877462387,0.07765790075063705,-0.023633461445569992,-0.07319214940071106,0.0034486926160752773,0.025281693786382675,0.03485799953341484,0.05367409065365791,0.00023230444639921188,-0.02358170971274376,0.048877567052841187,0.012928825803101063,0.007978218607604504,0.056678060442209244,-0.009100604802370071,0.04318412020802498,-0.07417525351047516,0.025115279480814934,-0.03142780065536499,-0.007035806309431791,0.003923226613551378,0.006506298203021288,-0.059468455612659454,-0.020227598026394844,-0.028746837750077248,-0.020580539479851723,-0.11736950278282166,0.034931812435388565,-0.002070810180157423,0.0001674491068115458,0.020494235679507256,0.02433326281607151,-0.02735309675335884,0.003807739121839404,-0.02504025585949421,-0.02382678911089897,0.007130807731300592,0.014079848304390907,-0.000992192653939128,-0.000012324939234531485,0.0288592129945755,0.03954125568270683,-0.0581863671541214,-0.02130119316279888,-0.0028470554389059544,0.04250939190387726,-0.01716427318751812,0.02593807503581047,0.010966737754642963,0.008129110559821129,-0.032191868871450424,-0.016299447044730186,-0.010571232065558434,0.04249110072851181,-0.03834351897239685,-0.030720926821231842,0.07913339883089066,0.0033263557124882936,0.01451572123914957,0.02914968691766262,0.03900688514113426,0.04969371110200882,0.02640199288725853,0.011517887935042381,-0.022251542657613754,-0.021065788343548775,0.06703921407461166,-0.00906551443040371,0.006670667789876461,0.00010643310088198632,0.021060755476355553,-0.008776657283306122,-0.02164808101952076,0.03676425665616989,0.016099268570542336,-0.003516476135700941,-0.009874981828033924,0.062288280576467514,-0.03937496244907379,-0.02920159511268139,-0.04810227081179619,-0.028139987960457802,-0.0005084038712084293,-0.0013315269025042653,-0.02217910997569561,-0.03577810153365135,-0.030629325658082962,0.044175006449222565,0.012499132193624973,-0.04249360039830208,-0.011543690226972103,0.0352729968726635,-0.005801032297313213,0.0329691506922245,0.03722594305872917,0.06683041900396347,-0.05696213245391846,0.021578922867774963,-0.008487023413181305,-0.038597866892814636,-0.02766955830156803,0.02535039745271206,-0.010800769552588463,0.0042207748629152775,-0.06951234489679337,0.019173063337802887,-0.01772460527718067,0.03609919920563698,-0.012041740119457245,0.05364108085632324,-0.050909169018268585,-0.001666645985096693,-0.01698220521211624,0.009477529674768448,0.0387868732213974,-0.010202676057815552,0.03561033308506012,0.0406499020755291,0.056754764169454575,0.02195635437965393,-0.0025182098615914583,0.008168196305632591,0.005860299337655306,0.018333448097109795,0.006719859782606363,0.0015803027199581265,-0.010320989415049553,-0.04122929647564888,0.00339507800526917,0.017764925956726074,-0.022814204916357994,-0.019089633598923683,-0.02984185516834259,0.007137606386095285,-0.040256138890981674,-0.0962739884853363,-0.05449723079800606,-0.017885690554976463,0.025530720129609108,-0.030011633411049843,0.050402361899614334,0.054807569831609726,-0.026278814300894737,0.03454295173287392,-0.025328917428851128,0.048294633626937866,-0.0009307016734965146,-0.0180867500603199,0.01460300013422966,0.03838375583291054,0.02235027588903904,0.012293168343603611,0.09752894192934036,0.00848300103098154,-0.04779019579291344,0.06309431046247482,0.021274350583553314,0.02948221005499363,0.013758759945631027,-0.037702832370996475,-0.006476565729826689,-0.039552465081214905,0.014790528453886509,-0.01919269748032093,-0.05038199946284294,0.02944313921034336,0.038582105189561844,0.031971435993909836,-0.009716778062283993,-0.017466988414525986,-0.037575628608465195,0.03860681504011154,0.05289822071790695,-0.05652124062180519,-0.014502141624689102,-0.0443919375538826,-0.015469490550458431,0.036660537123680115,-0.02727849781513214,-0.003407034557312727,0.03656603395938873,0.03973910212516785,0.02374386414885521,0.0059330640360713005,-0.009130451828241348,0.05423334613442421,0.05651233717799187,0.037061672657728195,0.03079688549041748,0.01211270596832037,-0.058566879481077194,0.041301995515823364,0.013134957291185856,0.0067567708902060986,0.05466167628765106,0.0020515131764113903,-0.10174262523651123,-0.0011427830904722214,-0.004663275554776192,-0.0345274843275547,0.00709539745002985,0.0017107161693274975,-0.008039575070142746,-0.059543345123529434,-0.011835710145533085,-0.030367182567715645,0.030426200479269028,-0.0033494250383228064,-0.0030763118993490934,-0.013505734503269196,0.0057145096361637115,0.05419495329260826,-0.012139174155890942,-0.0025613997131586075,-0.008118949830532074,0.004052739590406418,-0.02631189301609993,-0.03428993001580238,0.05795308202505112,0.02913736179471016,0.03898807242512703,-0.02220558375120163,0.00023024229449220002,-0.04705026373267174,-0.038735583424568176,0.020946495234966278,-0.022511467337608337,-0.023497354239225388,0.011790193617343903,0.02912815846502781,-0.039565011858940125,-0.044066473841667175,0.016680315136909485,-0.014412758871912956,-0.03903105482459068,0.014923385344445705,0.031538497656583786,0.0033924891613423824,0.0443246066570282,0.056933000683784485,0.008377231657505035,0.060579150915145874,0.0465451255440712,0.000310598814394325,0.011073115281760693,0.04475618526339531,-0.026926063001155853,0.015576806850731373,0.04154066741466522,-0.02264941856265068,-0.03215798735618591,0.028415972366929054,0.030391274020075798,0.02839425951242447,0.07489490509033203,0.05561148375272751,0.03142194077372551,0.050256043672561646,-0.028411798179149628,0.05119835585355759,-0.02570466697216034,-0.016554778441786766,-0.005974053870886564,0.001167369307950139,0.0030597676523029804,-0.003289559856057167,-0.01502743549644947,-0.06115185469388962,-0.020235443487763405,0.018123622983694077,0.05592205002903938,-0.061801619827747345,0.009114481508731842,-0.020321456715464592,0.02736680582165718,0.014611522667109966,0.010207203216850758,0.03794058412313461,-0.02126513607800007,-0.028027886524796486,-0.030716512352228165,0.0035996055230498314,0.06035270914435387,-0.022678762674331665,0.008025429211556911,0.011414381675422192,-0.03942694887518883,-0.007841878570616245,-0.013678274117410183,0.0333186611533165,0.003907469566911459,0.0034185273107141256,0.03618096932768822,-0.0014342101057991385,0.0019007788505405188,0.0016977040795609355,0.0063304537907242775,-0.06876993924379349,-0.005903217941522598,-0.054791487753391266,-0.006404143292456865,0.004714434966444969,-0.01997690089046955,0.014508546330034733,0.04523439332842827,-0.02453097142279148,-0.0287789236754179,0.005459106061607599,0.03425918146967888,-0.00788614060729742,0.011920667253434658,0.012982790358364582,0.018805349245667458,-0.023387854918837547,0.003906446509063244,-0.04806631803512573,0.015174800530076027,-0.049747284501791,0.03589018061757088,0.03421972692012787,-0.016785359010100365,0.015886850655078888,-0.05721869692206383,0.016346842050552368,-0.10935160517692566,0.02226763591170311,-0.04958326369524002,0.010838143527507782,0.0006663684616796672,0.033834341913461685,0.047676946967840195,-0.023727256804704666,-0.02991856262087822,-0.010778041556477547,-0.06055350974202156,-0.02218245528638363,0.024263784289360046,0.0072031039744615555,0.052995551377534866,0.011378680355846882,-0.056550197303295135,-0.006597171071916819,0.05570545420050621,-0.023471934720873833,0.016766322776675224,-0.03776552155613899,-0.005384932272136211,0.03813832998275757,-0.01569954864680767,-0.014625799842178822,0.04457037150859833,-0.0004994217306375504,0.05441487580537796,-0.004225159529596567,-0.05343120917677879,0.05861787125468254,0.01286353450268507,0.006098067853599787,0.02080712653696537,0.030261756852269173,-0.038961030542850494,0.06685323268175125,-0.03397895395755768,0.012860042043030262,-0.08422788232564926,0.008896839804947376,-0.08112428337335587,-0.026644280180335045,-0.022036315873265266,-0.07028815150260925,0.005205488298088312,-0.01901947893202305,0.01406911201775074,0.032646823674440384,-0.0056140851229429245,0.010586496442556381,-0.03778006508946419,-0.04009692743420601,0.007567322812974453,-0.03747430071234703,0.029085703194141388,0.02709829993546009,0.03671405836939812,0.013454016298055649,-0.0011046923464164138,-0.014158273115754128,0.015111319720745087,-0.02180974930524826,0.0034847853239625692,0.04694218561053276,-0.052967365831136703,-0.05277646332979202,0.019523119553923607,-0.003859165823087096,0.05290094390511513,0.009918185882270336,0.01983017474412918,-0.04917315021157265,-0.03269466757774353,0.044140152633190155,-0.006098175887018442,0.012005907483398914,-0.0566440187394619,0.03838865086436272,-0.04673517495393753,0.02957199700176716,-0.016511570662260056,0.017481964081525803,-0.0650835931301117,-0.02210463210940361,0.010558456182479858,0.01833828166127205,-0.017109619453549385,-0.029120294377207756,0.007471999619156122,-0.027121800929307938,0.05191798880696297,0.0221298448741436,-0.033165160566568375,0.009587135165929794,-0.05701019614934921,0.06860450655221939,-0.014301581308245659,-0.025236550718545914,0.0008559861453250051,-0.0016358315479010344,0.021625574678182602,0.010487025603652,0.003710909280925989,-0.004730447195470333,0.04692890867590904,-0.021064747124910355,0.037875883281230927,0.04493545740842819,0.025731803849339485,-0.02196449786424637,-0.01043216697871685,0.014694207347929478,-0.0042291381396353245,0.0307057686150074,-0.020545074716210365,-0.03169143572449684,0.012404441833496094,0.036440759897232056,-0.012460709549486637,-0.0077679893001914024,0.01944330707192421,-0.024929499253630638,-0.037673741579055786,-0.005201698746532202,-0.013125999830663204,-0.044006187468767166,-0.02708129584789276,-0.06499703973531723,-0.033298593014478683,0.04484817013144493,0.00018317253852728754,0.03738221153616905,-0.021191278472542763,-0.06059521436691284,-0.05291694775223732,-0.014851727522909641,0.04452120140194893,-0.022023962810635567,0.009250285103917122,-0.0011899768142029643,0.05440948158502579,-0.009185957722365856,0.012845342047512531,0.01621229015290737,0.006352151278406382,0.0034677034709602594,-0.004349104594439268,-0.04593038931488991,-0.049931496381759644,-0.00832357443869114,0.02128005586564541,0.03693898767232895]],"8dc7abf02414bd79395eeb495c856b5f":[0.9999923770945962,[0.04225952923297882,0.03265460580587387,-0.04653218016028404,-0.00440925033763051,0.014242466539144516,0.04308414086699486,0.04642551392316818,0.025862419977784157,-0.016154339537024498,0.02444082498550415,-0.018590033054351807,0.06863555312156677,0.023696448653936386,-0.007262640632688999,0.007274767849594355,-0.06598872691392899,0.021802620962262154,-0.002645843895152211,-0.018257612362504005,0.044809527695178986,-0.01812042109668255,0.0019599690567702055,-0.010742990300059319,-0.045454755425453186,0.039081327617168427,-0.030898666009306908,0.03951422870159149,-0.018659301102161407,-0.010791421867907047,-0.0233460683375597,0.047307539731264114,0.00994800217449665,0.025940444320440292,-0.02808591164648533,0.011078184470534325,0.03971974924206734,-0.004087463952600956,0.033782605081796646,-0.0025819670408964157,-0.017287477850914,-0.07221174985170364,-0.03061685711145401,-0.030543964356184006,0.03580518066883087,-0.033340658992528915,-0.009797713719308376,-0.033029552549123764,-0.03015526570379734,-0.04949728399515152,0.023953819647431374,0.05180861055850983,0.04881271347403526,0.00007454903970938176,0.05682738497853279,-0.03218705579638481,-0.06471415609121323,-0.07421568036079407,-0.028568273410201073,0.05303354188799858,-0.0035775993019342422,-0.038338854908943176,-0.007866302505135536,-0.025236384943127632,-0.011833497323095798,-0.007126264739781618,-0.033698663115501404,0.03817235678434372,0.028866587206721306,-0.011254450306296349,0.07644938677549362,-0.04189092293381691,-0.007554780226200819,-0.04413945600390434,0.0007878609467297792,-0.040342025458812714,0.020172543823719025,-0.004728472325950861,-0.0034781168214976788,-0.012970910407602787,0.0010758605785667896,0.019980285316705704,-0.019853336736559868,0.009166453965008259,0.049534544348716736,0.0030999924056231976,0.009328026324510574,0.003212593961507082,-0.03469915688037872,-0.03911176323890686,-0.005839519668370485,0.04904811456799507,0.031881384551525116,-0.016504913568496704,0.00951677467674017,0.07020606845617294,-0.02696426399052143,-0.0630483403801918,-0.1362396478652954,0.025384098291397095,0.027428099885582924,0.015357018448412418,-0.0001299005380133167,-0.012208440341055393,-0.04136991500854492,0.05048907920718193,-0.012317514047026634,-0.008965350687503815,-0.015454530715942383,-0.078707754611969,-0.004953473806381226,-0.01995384506881237,0.0021885577589273453,0.02088938280940056,-0.013241364620625973,-0.005796334706246853,-0.018461832776665688,0.047607433050870895,0.04526330530643463,-0.02036016434431076,0.010167409665882587,0.020774176344275475,0.0046790167689323425,-0.04005925729870796,0.06148902326822281,0.039166759699583054,0.002358438214287162,0.0545397587120533,-0.018549561500549316,-0.00913090817630291,-0.03858038783073425,0.04903990030288696,-0.06604629755020142,-0.018822111189365387,0.04076872766017914,0.03491616249084473,0.032971419394016266,0.009568098932504654,-0.011937127448618412,0.04660389572381973,0.025234099477529526,-0.0034548735711723566,0.024714883416891098,-0.07348014414310455,0.003553280606865883,-0.011944983154535294,-0.015904925763607025,0.015967875719070435,0.053432006388902664,0.007154926657676697,0.03370935097336769,-0.058371271938085556,0.0203129593282938,0.03227463737130165,-0.010035648941993713,-0.033676546066999435,-0.05614392086863518,0.06291354447603226,-0.06387931853532791,0.005998421460390091,0.03016386739909649,0.019841035827994347,-0.006965364329516888,0.025361599400639534,0.044148750603199005,-0.014568225480616093,-0.08137311786413193,-0.03555901721119881,-0.0050835562869906425,-0.006521060597151518,-0.0005222748732194304,-0.03469248488545418,-0.09094405919313431,-0.05220361053943634,-0.011702185496687889,-0.05583135783672333,0.013845479115843773,0.02796695940196514,-0.007095430977642536,-0.092751145362854,0.012967180460691452,0.13447150588035583,0.043456800282001495,0.014300500974059105,-0.008992152288556099,-0.010420482605695724,0.023940840736031532,-0.025554297491908073,0.023476537317037582,0.00029955717036500573,0.03673047944903374,-0.025242436677217484,-0.0019160922383889556,-0.0032914436887949705,0.07030975818634033,-0.009763441048562527,-0.00033042955328710377,0.021873805671930313,-0.01233218889683485,-0.07929813116788864,-0.026299025863409042,0.032058585435152054,0.01606345735490322,-0.062136709690093994,0.026815347373485565,-0.04351840913295746,0.04253486916422844,-0.026668263599276543,-0.043617259711027145,0.028332138434052467,-0.019373320043087006,-0.0025706766173243523,-0.02011885493993759,0.02696400135755539,-0.009027434512972832,0.017106076702475548,-0.03711479902267456,0.08650018274784088,0.01972307078540325,0.05589909479022026,-0.029269175603985786,0.0008141109137795866,-0.012891829013824463,-0.016283251345157623,0.014257392846047878,0.013786778785288334,0.00353251863270998,-0.04993341863155365,-0.007470366079360247,-0.05898420885205269,-0.060786884278059006,0.017119022086262703,0.038893114775419235,-0.0219244584441185,0.011716349050402641,-0.029447561129927635,0.06582549214363098,0.013601986691355705,-0.043936073780059814,-0.027762049809098244,-0.004384535364806652,0.01728036254644394,0.0025162305682897568,0.0049335951916873455,0.034500375390052795,0.03768159821629524,-0.032946277409791946,0.015983710065484047,-0.0038604314904659986,0.026622384786605835,-0.055806152522563934,0.01193004846572876,-0.025116130709648132,-0.055415160953998566,-0.004353927914053202,-0.06570077687501907,-0.044001609086990356,0.03281807526946068,0.01322073582559824,0.02479410730302334,-0.02850736305117607,0.014055662788450718,-0.004932740703225136,-0.05975997820496559,-0.07815146446228027,-0.036464039236307144,-0.065902940928936,0.020662518218159676,-0.01727827824652195,-0.006048198323696852,-0.027386203408241272,0.02242748811841011,-0.05383443832397461,-0.08009866625070572,-0.012105568312108517,-0.09728401899337769,0.04411822184920311,-0.05823151394724846,0.015802958980202675,-0.036643821746110916,-0.06114063411951065,0.016472598537802696,0.0016197545919567347,-0.0012045272160321474,0.002230917802080512,0.06110411882400513,-0.001166347530670464,-0.028683282434940338,0.037956353276968,-0.01804494298994541,-0.03730166330933571,0.015612215735018253,0.0653759315609932,-0.045716412365436554,-0.034970998764038086,0.03561847284436226,-0.005174386315047741,0.046415384858846664,0.0368279367685318,0.0322137176990509,0.011957801878452301,0.044914670288562775,0.010402749292552471,-0.015143209137022495,0.010382595472037792,-0.04534005746245384,0.024967683479189873,-0.052033811807632446,-0.003462142078205943,0.0032372649293392897,-0.019605344161391258,-0.009174306876957417,0.006288610398769379,-0.030712708830833435,0.010011352598667145,-0.029073866084218025,-0.014627696946263313,-0.13831551373004913,-0.01265263557434082,-0.02158256620168686,0.003871862543746829,0.00715646892786026,0.003613897832110524,-0.11333820968866348,-0.03400011733174324,0.0269402414560318,-0.012567347846925259,-0.00783398188650608,0.01945371739566326,0.016995219513773918,0.01102273166179657,0.06334573775529861,0.0014796757604926825,-0.011049912311136723,-0.02189551666378975,-0.007766091730445623,0.07287494838237762,-0.03521614894270897,-0.024631960317492485,0.05526949092745781,0.04014670103788376,0.010310960933566093,-0.01643015444278717,0.027672627940773964,-0.010929133743047714,-0.023989828303456306,0.006866069044917822,0.05660524219274521,-0.03819175437092781,0.038596127182245255,0.0038323355838656425,0.0451788604259491,0.06644102931022644,-0.022711699828505516,0.0129901934415102,0.007935279048979282,-0.012356724590063095,0.026321448385715485,-0.027619652450084686,0.01954091154038906,-0.04650462418794632,-0.0066268048249185085,-0.003187859198078513,-0.007538069039583206,0.0566081628203392,-0.010693658143281937,-0.0002003179833991453,0.0010866854572668672,0.06135127693414688,-0.023690514266490936,-0.031589556485414505,-0.026619644835591316,-0.0002950890630017966,0.017357248812913895,0.00842269230633974,0.005244688130915165,-0.014758359640836716,-0.028577838093042374,0.016454428434371948,0.027063334360718727,-0.04752654209733009,0.007420095149427652,0.020444229245185852,-0.027817310765385628,0.01472833938896656,0.015675732865929604,0.04949687048792839,-0.06355374306440353,0.004176677204668522,0.020725486800074577,-0.027271810919046402,-0.05096689239144325,0.012543345801532269,0.019205205142498016,0.03294702619314194,-0.07162301242351532,0.02686958760023117,0.019269315525889397,0.04109948128461838,-0.009964807890355587,0.028183020651340485,-0.05170128121972084,-0.021297482773661613,0.03111642599105835,-0.0009266918059438467,0.012352838180959225,0.01368270255625248,0.094151571393013,0.0469912588596344,0.007605310529470444,-0.007865004241466522,0.02497011050581932,-0.0416475385427475,-0.010837498120963573,-0.0007252437062561512,-0.03623173385858536,-0.02401595190167427,0.02153954468667507,-0.02667267620563507,0.02406306564807892,0.014210435561835766,0.0068518356420099735,-0.0034591779112815857,0.02348574437201023,0.03236350417137146,-0.06255361437797546,-0.06058716028928757,-0.023679623380303383,-0.03780527040362358,-0.016778457909822464,-0.02430824004113674,0.027257109060883522,0.03947656229138374,-0.04294534772634506,0.0002092318027280271,-0.022778963670134544,0.04042275995016098,-0.010427146218717098,-0.006802261341363192,0.01272590458393097,0.037127915769815445,0.022478800266981125,0.06039029359817505,0.07895265519618988,-0.014521319419145584,-0.013783494010567665,0.0579376183450222,0.011443407274782658,0.04102196916937828,-0.02107630856335163,-0.025740936398506165,0.006663334555923939,-0.02233896404504776,-0.03851141408085823,-0.0051677655428647995,-0.1016940250992775,-0.004889598116278648,0.00693807378411293,0.034459907561540604,0.024849247187376022,-0.04107092320919037,-0.04826154559850693,-0.02172854170203209,0.02593553066253662,-0.04641308635473251,-0.01538940891623497,-0.03182053193449974,-0.03221656754612923,0.006033863872289658,-0.020899055525660515,-0.04598160460591316,0.04291454702615738,0.03647119551897049,0.03853743150830269,-0.002088880632072687,-0.03782370686531067,0.025727761909365654,0.06987211108207703,-0.011891849339008331,0.028068771585822105,0.026067381724715233,-0.014826401136815548,0.04954579845070839,-0.004108162596821785,0.004869311582297087,0.054596591740846634,-0.03347083181142807,-0.018156815320253372,0.019458208233118057,-0.014315295033156872,-0.010149110108613968,0.003909936174750328,0.01958836428821087,-0.019519805908203125,-0.014903245493769646,-0.005897133145481348,-0.0025402395986020565,0.020482460036873817,-0.014042019844055176,0.009184985421597958,0.04699905216693878,0.0405692420899868,0.009886919520795345,-0.0038505883421748877,-0.02772647701203823,0.01603267528116703,0.00023581903951708227,-0.023036213591694832,-0.021136747673153877,0.020992744714021683,0.04986463859677315,0.04803827777504921,0.005529562942683697,0.022334033623337746,0.0201704241335392,-0.03613065555691719,-0.006006320007145405,-0.0655752420425415,-0.043853141367435455,0.013805675320327282,-0.01818457990884781,-0.030813785269856453,-0.0650363489985466,0.05454239994287491,0.03109191358089447,-0.027534523978829384,-0.03046726994216442,0.026223476976156235,0.023754393681883812,0.05698675289750099,0.009237044490873814,-0.03490464761853218,0.10883545130491257,0.042756568640470505,0.022151650860905647,0.018183106556534767,0.024223370477557182,0.02575710043311119,-0.01488516665995121,0.05503090098500252,0.011119293980300426,-0.029796229675412178,-0.007391165476292372,-0.007979887537658215,0.02547609992325306,0.09048105776309967,0.0005659627495333552,0.013809071853756905,0.029407111927866936,-0.004783187992870808,0.07531484216451645,-0.02109125815331936,-0.017572209239006042,-0.0024475869722664356,0.048113930970430374,-0.022828999906778336,-0.02666955254971981,0.0009269915753975511,-0.036096133291721344,-0.05286504328250885,0.02281544916331768,0.012048840522766113,-0.047181855887174606,-0.03271755576133728,0.01939857378602028,0.0424935556948185,-0.005285223945975304,0.010155941359698772,0.04494122043251991,-0.012308440171182156,0.008958266116678715,-0.016890596598386765,-0.022407138720154762,0.05356109142303467,-0.031015722081065178,0.031387314200401306,-0.035197578370571136,-0.059280186891555786,-0.03758873790502548,-0.014821469783782959,0.002177854534238577,0.026845060288906097,0.00280748400837183,0.110181525349617,-0.011039823293685913,-0.037238191813230515,0.0074944575317204,0.015141293406486511,-0.07407422363758087,-0.00005255580981611274,-0.033066969364881516,-0.01356362085789442,0.03999774158000946,-0.007486109156161547,-0.013936172239482403,0.047263652086257935,0.028054894879460335,-0.03380211070179939,-0.030203698202967644,-0.017284555360674858,0.004683906212449074,-0.0045656547881662846,-0.017836717888712883,0.031895168125629425,0.013579707592725754,-0.036947451531887054,-0.04368824139237404,-0.01151060126721859,-0.08322545886039734,0.027757398784160614,0.057938557118177414,0.007350341882556677,0.003988727927207947,0.006715042516589165,-0.03157530352473259,0.0024052478838711977,0.008769029751420021,-0.03926661238074303,-0.025537805631756783,0.01767410896718502,0.06983872503042221,0.025571413338184357,0.02816404402256012,-0.07227678596973419,0.017347807064652443,-0.03217773139476776,-0.06253407150506973,0.04212361201643944,0.01092289388179779,0.056785669177770615,-0.003533989191055298,-0.06480260193347931,-0.0040862117893993855,0.04468078166246414,-0.032068390399217606,-0.006867419462651014,-0.04162431135773659,-0.019671574234962463,0.018918190151453018,0.025745274499058723,-0.057963453233242035,0.03526776283979416,0.06690729409456253,0.07099661976099014,0.015227789990603924,-0.08315236121416092,0.042002808302640915,-0.0164123997092247,0.0014859478687867522,0.023884598165750504,0.024989763274788857,-0.032331351190805435,0.09063005447387695,-0.013177464716136456,0.01564953848719597,-0.06478412449359894,0.008372697979211807,-0.03280454874038696,-0.020647156983613968,-0.016156010329723358,-0.03436421975493431,-0.06256972253322601,-0.03337102010846138,0.020188547670841217,0.039194583892822266,-0.0005093789077363908,-0.04048832505941391,-0.03955142945051193,-0.02876909263432026,-0.02289316989481449,-0.0635899007320404,0.03679412230849266,-0.017240744084119797,0.02466960810124874,0.06748685240745544,0.015220513567328453,-0.03246890380978584,0.05460042878985405,-0.02019423432648182,0.009912568144500256,0.04743582382798195,-0.02367783710360527,-0.04496019333600998,0.011259114369750023,-0.000823813141323626,0.04927212372422218,0.015517858788371086,-0.00804070383310318,-0.03526894748210907,0.001395238796249032,-0.031203392893075943,-0.0037985453382134438,-0.028361715376377106,-0.04046392813324928,0.018565954640507698,-0.00814004335552454,0.006182135548442602,-0.03219139948487282,0.02485445700585842,0.02548525482416153,-0.025816187262535095,-0.016076169908046722,-0.017218641936779022,-0.054938554763793945,-0.013905702158808708,0.01804584264755249,0.005197547376155853,0.0636686161160469,0.0012077242136001587,-0.011655178852379322,0.020616164430975914,-0.06482068449258804,0.09112873673439026,0.028385009616613388,0.0019617248326539993,0.011979741044342518,0.01679963245987892,0.013404594734311104,0.021789396181702614,0.0378991924226284,0.0537729486823082,0.010035567916929722,-0.025457320734858513,0.03398098424077034,0.049167945981025696,0.03700825572013855,-0.036666370928287506,-0.013374727219343185,0.04884934052824974,-0.025624873116612434,0.02958417497575283,-0.01869257353246212,-0.007398612797260284,-0.02347949519753456,0.041786160320043564,0.01591387949883938,-0.031048445031046867,0.026322701945900917,-0.044340018182992935,-0.027863826602697372,0.03195200487971306,0.03408363461494446,-0.018878648057579994,-0.028782900422811508,-0.04430646821856499,0.038181569427251816,0.017936069518327713,-0.006811930797994137,-0.009522459469735622,0.013028670102357864,-0.023890607059001923,-0.1110682561993599,-0.013149039819836617,0.04043947532773018,0.0382506437599659,0.005638340022414923,0.006666814908385277,0.020673805847764015,-0.05212606489658356,0.043116580694913864,0.010120594874024391,-0.019483093172311783,0.0578707791864872,-0.007258497644215822,-0.021162450313568115,-0.08813203126192093,0.02238023839890957,0.03465593606233597,0.005096093285828829]],"2d17f586afb47a0cbfb886b74d5d9745":[0.9999726398271146,[0.10352282226085663,0.021244799718260765,-0.0510404109954834,0.02078067511320114,0.007100222632288933,0.015181279741227627,-0.004505336284637451,0.00875368807464838,0.017466219142079353,0.0245499424636364,0.00044001766946166754,0.08465743064880371,0.04975917562842369,-0.01508710440248251,0.010850515216588974,-0.027187883853912354,0.008641545660793781,0.032364267855882645,-0.06523986905813217,-0.031932052224874496,-0.02265472337603569,0.014986541122198105,-0.018614254891872406,0.009728960692882538,0.0007539693615399301,-0.005649238359183073,0.01823776587843895,-0.031420230865478516,0.025917090475559235,-0.02838059328496456,0.05581369623541832,0.04914342239499092,0.03321831300854683,-0.04362058266997337,-0.0376240536570549,0.04861517623066902,-0.011850986629724503,0.01725197769701481,0.04260166734457016,-0.033605676144361496,-0.06684906780719757,0.0121140843257308,0.02580113150179386,0.01094266027212143,0.025340113788843155,-0.041326262056827545,-0.0348651260137558,-0.04554460570216179,-0.06323207169771194,0.021157721057534218,0.05595753341913223,0.06707549840211868,-0.03367539867758751,0.02294151298701763,-0.0010195401264354587,-0.023642025887966156,-0.013958953320980072,-0.0351661816239357,0.028306016698479652,0.03246135264635086,0.051774438470602036,-0.03789113089442253,-0.0016262076096609235,0.04754713177680969,-0.031126881018280983,-0.06849875301122665,0.020097285509109497,-0.0028079079929739237,-0.07084862887859344,-0.00011980088311247528,-0.016916513442993164,0.021604014560580254,-0.07704658806324005,0.042908791452646255,0.028456181287765503,-0.013429263606667519,-0.02021150104701519,0.012421030551195145,0.0407283753156662,0.09380216151475906,0.0058836909011006355,0.005810732953250408,0.038997117429971695,0.010326673276722431,0.034946054220199585,-0.04071805253624916,-0.0016698043327778578,-0.014879122376441956,-0.053272832185029984,0.011121848598122597,0.033054959028959274,0.022338727489113808,-0.03143536299467087,-0.023835178464651108,0.13620956242084503,0.013535522855818272,-0.0969635546207428,-0.10555162280797958,0.06420111656188965,0.07078637182712555,-0.027067961171269417,0.05342411249876022,-0.04355122148990631,0.006203778088092804,-0.0010801440803334117,0.010137422010302544,-0.025568321347236633,-0.06416462361812592,-0.08585961908102036,0.0006885940092615783,-0.008147427812218666,-0.03611091896891594,-0.008747754618525505,0.025539875030517578,-0.06043075770139694,-0.05342872440814972,0.03340842202305794,0.04295830428600311,-0.03348662704229355,0.027268506586551666,0.010894788429141045,0.036104924976825714,0.002959552453830838,0.05546179041266441,0.022247662767767906,0.02879733219742775,-0.006541768554598093,0.0005668216617777944,-0.031236659735441208,-0.013718156144022942,0.03947371616959572,-0.021000275388360023,0.01186125073581934,0.013169690035283566,-0.06443122029304504,-0.004536802414804697,0.01531500369310379,0.049560897052288055,0.015832694247364998,0.013616424985229969,-0.03862401470541954,-0.07254736125469208,-0.11021791398525238,0.020360935479402542,0.03223996236920357,-0.040171414613723755,0.03083181008696556,0.06881622970104218,-0.03945602849125862,0.04787879437208176,-0.04574138671159744,-0.01441224291920662,0.006693197414278984,-0.0016070181736722589,-0.02061864174902439,0.0032965128775686026,-0.026788458228111267,-0.0473596416413784,0.04813117906451225,0.008806753903627396,0.014617321081459522,-0.005752247292548418,0.03447834774851799,0.00607568584382534,0.02126115933060646,-0.03187761828303337,-0.0769186019897461,-0.01511699054390192,-0.055555738508701324,-0.004179480019956827,-0.037007417529821396,-0.02294137515127659,-0.0179455429315567,-0.013691358268260956,-0.010940805077552795,-0.036346979439258575,0.053504422307014465,-0.007012250833213329,-0.026743808761239052,0.010053343139588833,0.10434215515851974,0.02305363304913044,-0.008952673524618149,-0.012137334793806076,0.06791235506534576,0.02304237335920334,-0.014472609385848045,-0.014986425638198853,0.04597153887152672,0.01858179271221161,-0.0015522199682891369,0.02052805759012699,-0.0379357673227787,0.010289432480931282,0.0009885270847007632,0.003625862766057253,0.03022870421409607,-0.03659053146839142,-0.01717432402074337,-0.0563274547457695,0.0386115163564682,-0.012347881682217121,-0.015279453247785568,-0.012379512190818787,0.002693541580811143,0.0225400160998106,-0.014951754361391068,-0.0023697589058429003,-0.021611282601952553,0.02880764752626419,-0.008225806057453156,-0.010309909470379353,-0.07640668004751205,-0.034582167863845825,-0.007804410997778177,0.012384212575852871,0.04552428051829338,0.018949944525957108,0.04150721803307533,-0.010651182383298874,-0.02630501613020897,-0.01998031511902809,0.01791859231889248,0.0830947682261467,0.04204404354095459,-0.015288479626178741,0.003365738084539771,-0.00015159332542680204,-0.020738648250699043,-0.09074202179908752,0.015067086555063725,0.05244513973593712,-0.00392867811024189,0.018669908866286278,-0.004960827995091677,0.06268878281116486,0.015894193202257156,0.021599294617772102,-0.036756694316864014,0.008726163767278194,0.014879747293889523,-0.048193976283073425,0.032748252153396606,-0.03559604287147522,0.05554433539509773,0.05165053531527519,0.02268841490149498,-0.013640974648296833,-0.013248976320028305,-0.0633578822016716,-0.03408070653676987,0.046679940074682236,-0.020199501886963844,-0.001916965818963945,0.0028636145871132612,0.061345599591732025,0.0445065051317215,0.005842224229127169,0.0035368509124964476,-0.013387062586843967,0.01060098223388195,-0.05855477228760719,-0.002301587024703622,0.004818696528673172,-0.05862237513065338,-0.04780985414981842,-0.04388854280114174,-0.027095193043351173,-0.0044739446602761745,0.033825766295194626,0.037478007376194,-0.06346691399812698,-0.060135114938020706,-0.020598886534571648,-0.029920121654868126,0.018176546320319176,-0.02221597172319889,0.0364440493285656,-0.052357401698827744,-0.042627137154340744,-0.011518215760588646,-0.0027829790487885475,0.006782270967960358,-0.044578224420547485,0.03441100940108299,-0.0862923115491867,-0.00018006321624852717,-0.034418173134326935,0.007195245940238237,-0.03458333760499954,0.0614832378923893,0.050785697996616364,-0.006219367031008005,-0.060246676206588745,0.02568412758409977,0.02448885887861252,0.03512393310666084,0.07882417738437653,-0.007911153137683868,0.04277893528342247,0.01023638341575861,-0.0007416942389681935,-0.0006286769639700651,0.053596269339323044,-0.04921384155750275,-0.006951367016881704,-0.03990773856639862,-0.005071356892585754,-0.005734819918870926,0.00505246315151453,0.03252500668168068,0.07790952920913696,0.015294806100428104,-0.02320963703095913,-0.03453174605965614,0.010741319507360458,-0.11884382367134094,-0.05208995193243027,-0.03363592550158501,0.029839852824807167,0.02232089452445507,-0.015085650607943535,-0.014191330410540104,0.03214269503951073,0.02399643510580063,0.0029981215484440327,-0.0017897934885695577,0.004469624720513821,0.010900833643972874,-0.035382360219955444,0.030028831213712692,0.016178073361516,0.010677666403353214,-0.030369091778993607,0.01266484521329403,0.0061494274996221066,-0.0402362234890461,-0.0006988709210418165,0.04286528006196022,-0.006515506189316511,0.06336085498332977,0.0224873349070549,0.006078200414776802,0.015901677310466766,0.02906752936542034,-0.022390281781554222,-0.05818668752908707,0.011543259024620056,-0.022453684359788895,0.07462708652019501,0.04140118509531021,0.026243552565574646,0.021654676645994186,0.010969973169267178,0.041438326239585876,0.0623069629073143,0.042534224689006805,0.026818450540304184,0.06359697133302689,-0.04063858836889267,-0.006798176094889641,-0.008407390676438808,-0.04379338398575783,0.04116428643465042,-0.027560414746403694,-0.007567448541522026,0.002032291144132614,0.04799967631697655,0.012233891524374485,-0.005924338009208441,0.006396915297955275,0.004266493022441864,0.0216642078012228,-0.056031472980976105,0.019284050911664963,-0.017083311453461647,-0.018782367929816246,-0.005153845530003309,0.0438225232064724,-0.01762571558356285,-0.029531553387641907,0.001978648127987981,-0.007399605121463537,-0.03356243297457695,-0.04141740873456001,0.050410449504852295,-0.04439225420355797,0.0047181760892271996,-0.059377238154411316,-0.01306737121194601,-0.024639319628477097,0.026206601411104202,0.024331456050276756,-0.007429789751768112,-0.015801304951310158,0.07124835252761841,-0.025348437950015068,0.00018276881019119173,0.0008702797349542379,0.006834570784121752,-0.04225094988942146,0.010775978676974773,0.07997206598520279,-0.03762293606996536,0.022469189018011093,0.02125074714422226,0.07000791281461716,0.008121262304484844,-0.054581329226493835,0.08652488887310028,0.04246481508016586,-0.015104471705853939,-0.02199065126478672,0.038981638848781586,0.03418073430657387,0.002887031063437462,0.03475165739655495,-0.010855356231331825,0.05030108615756035,0.05561681464314461,-0.02758643962442875,0.03437379375100136,0.019698616117239,0.022313173860311508,-0.02089933305978775,-0.07292432337999344,0.010638642124831676,0.0032811530400067568,-0.005410165060311556,0.006188198458403349,0.027984661981463432,0.05893758684396744,-0.021543245762586594,0.02300446107983589,-0.007255871780216694,0.04530755430459976,0.0038905602414160967,0.0154355363920331,0.013221362605690956,0.02291759103536606,-0.007909998297691345,0.025430679321289062,0.050488024950027466,0.005478775128722191,0.0002903221466112882,0.039133306592702866,-0.005928948521614075,0.0015795426443219185,-0.019504103809595108,-0.03199233487248421,-0.003220840822905302,-0.01067149918526411,0.011016122996807098,-0.04528596252202988,-0.0971151739358902,0.03193327784538269,0.02297903411090374,-0.02037554606795311,-0.01285531371831894,-0.01751183345913887,-0.03485260531306267,-0.0181058868765831,0.017279276624321938,0.028252393007278442,-0.03510035574436188,-0.008584382943809032,-0.05634239315986633,0.033412765711545944,0.06109543889760971,0.03705470636487007,0.0232851505279541,0.004523000679910183,-0.008265464566648006,0.012473381124436855,-0.03421590477228165,0.002646857872605324,0.0057322741486132145,0.011320778168737888,-0.07890469580888748,-0.010672075673937798,-0.06924141198396683,-0.011086670681834221,-0.04678455740213394,0.0386422723531723,0.04828508943319321,-0.023359430953860283,-0.007809261325746775,0.03604979068040848,-0.024124911054968834,0.02391754277050495,0.009783360175788403,0.05076662451028824,-0.026833726093173027,-0.02281777746975422,0.0033786112908273935,-0.002225648146122694,0.05871003493666649,0.037497252225875854,-0.02473493665456772,0.06786385923624039,0.08735682815313339,0.0350799560546875,0.019469372928142548,-0.010160763747990131,-0.008340487256646156,0.025792837142944336,-0.03688383102416992,-0.01069551333785057,0.02549113519489765,0.026794472709298134,0.05534076318144798,-0.04425353556871414,0.000007463644124072744,0.017432238906621933,-0.012128311209380627,0.007550209295004606,-0.03488210216164589,-0.014943375252187252,-0.019999971613287926,0.06559955328702927,-0.034966398030519485,-0.020111145451664925,0.04745912551879883,-0.04171622544527054,0.007978526875376701,-0.016120407730340958,-0.02396334335207939,-0.005015855189412832,0.02412514202296734,-0.016695812344551086,0.02976524829864502,0.04905954748392105,0.004752105567604303,0.01125270128250122,0.03259662538766861,0.012702091597020626,0.085321806371212,-0.01216858346015215,0.03106939233839512,0.025225551798939705,0.049801018089056015,0.0417049266397953,-0.0024543344043195248,0.050463128834962845,0.042086321860551834,0.04719358682632446,0.017240798100829124,-0.0005486321169883013,-0.04316214472055435,0.025535404682159424,-0.01888936571776867,-0.028774894773960114,-0.03826211392879486,-0.0135869225487113,0.0680127888917923,-0.033157240599393845,-0.009827536530792713,-0.048843543976545334,-0.025503460317850113,-0.01984073780477047,0.028301209211349487,-0.018864011391997337,-0.04382243752479553,0.01590457372367382,-0.011668345890939236,-0.024009328335523605,-0.011730010621249676,0.06997612863779068,0.009746945463120937,-0.0017919742967933416,0.01644357107579708,-0.0030621904879808426,0.004577957559376955,0.012560434639453888,0.02976936288177967,-0.020296424627304077,-0.0350831039249897,-0.02918294630944729,0.01723121665418148,0.011871452443301678,-0.010617181658744812,-0.012540330179035664,0.060562606900930405,0.008591440506279469,0.02346072345972061,-0.028433140367269516,0.009064407087862492,-0.01839299686253071,0.030110478401184082,-0.008619135245680809,-0.00677828211337328,0.028291720896959305,-0.008362924680113792,-0.04226825758814812,-0.01723296381533146,-0.03914062678813934,-0.04930905997753143,-0.011353910900652409,0.010872754268348217,-0.01787613332271576,0.0026985735166817904,-0.01684226281940937,0.028529860079288483,-0.021967383101582527,-0.019628191366791725,-0.04276537150144577,-0.018615586683154106,-0.08253009617328644,-0.04140765219926834,0.022817857563495636,-0.015356054529547691,0.060960881412029266,-0.05043509230017662,-0.058219023048877716,-0.05024557560682297,0.000008797484042588621,-0.03373769298195839,0.012114902958273888,0.010441750288009644,0.008358018472790718,0.04355728253722191,0.03409580513834953,0.006605411414057016,-0.024572506546974182,0.00728071853518486,0.024747712537646294,0.00205595837906003,0.02046538144350052,0.014446445740759373,0.0264296717941761,0.003865821287035942,-0.007934225723147392,0.0672651156783104,-0.021666036918759346,-0.025818414986133575,-0.0030790865421295166,-0.005094678606837988,0.00361623615026474,0.04752437770366669,-0.0343157984316349,-0.030607052147388458,0.042768895626068115,0.08515337854623795,-0.006992662325501442,-0.07540684938430786,-0.01120062731206417,0.021906644105911255,0.011574503034353256,0.01966637745499611,0.020960548892617226,-0.020601077005267143,0.05473516136407852,0.014927229844033718,0.00736886914819479,-0.02490057982504368,0.028416667133569717,-0.0214883740991354,-0.033451907336711884,0.0030535184778273106,-0.04713213071227074,-0.012672457844018936,-0.054360195994377136,0.006388959474861622,0.045230913907289505,-0.02238292805850506,0.005606966093182564,-0.06308400630950928,-0.03709050640463829,-0.020030124112963676,-0.013052002526819706,-0.006202225107699633,-0.04798652231693268,0.020068665966391563,0.019035283476114273,0.033919163048267365,-0.04681461676955223,0.041992440819740295,-0.010347512550652027,-0.0293519776314497,0.06379757076501846,-0.027713341638445854,-0.004216722212731838,0.026938801631331444,-0.02650274522602558,-0.017938898876309395,0.007671566680073738,-0.024729663506150246,-0.02670721895992756,-0.010067527182400227,0.029558639973402023,0.027670666575431824,0.0038788693491369486,-0.010583057999610901,0.06562741845846176,-0.005319391842931509,0.03448185324668884,-0.00953743141144514,0.011391286738216877,-0.047146767377853394,-0.005517493933439255,-0.009759225882589817,-0.024159973487257957,-0.06587141752243042,-0.07309144735336304,0.02015726827085018,-0.004126874729990959,0.06155629828572273,0.09040401875972748,-0.000550071126781404,0.032263316214084625,-0.014774665236473083,0.0321827195584774,0.1318432241678238,-0.00017766609380487353,-0.017412224784493446,0.019120866432785988,0.02451745606958866,0.05510210990905762,-0.03127891570329666,0.006454224698245525,0.029096918180584908,-0.05831917002797127,-0.012831365689635277,0.05323898792266846,0.017858607694506645,0.00912958662956953,-0.0585380420088768,-0.026783473789691925,0.014348352327942848,0.03473512455821037,-0.03451421856880188,0.010188600048422813,-0.018224095925688744,-0.028014691546559334,-0.03960689157247543,-0.037692420184612274,-0.006509365513920784,-0.015415351837873459,-0.022181155160069466,-0.019085489213466644,0.007455538026988506,-0.03211503475904465,-0.09137003123760223,-0.04770234227180481,0.0031918203458189964,0.02518937550485134,0.029700059443712234,-0.03374350816011429,-0.02217692695558071,-0.05880594998598099,-0.08665436506271362,0.0007323237950913608,0.004552929662168026,0.025067629292607307,0.028543606400489807,-0.010583017952740192,0.034407924860715866,-0.006488998420536518,0.0022425942588597536,0.027155723422765732,-0.021148042753338814,0.06017895042896271,-0.008797219954431057,-0.0258699432015419,-0.06848583370447159,-0.020728379487991333,0.04919956251978874,-0.03337843716144562]]}}},"searchableProperties":["id","title","path","content","embedding","embeddingModel","created_at","ctime","mtime","tags","extension"],"searchablePropertiesWithTypes":{"id":"string","title":"string","path":"string","content":"string","embedding":"vector[768]","embeddingModel":"string","created_at":"number","ctime":"number","mtime":"number","tags":"string[]","extension":"string"},"frequencies":{"id":{"1":{"1de6c1ac21f65c1072c21d509d375add":1},"2":{"8dc7abf02414bd79395eeb495c856b5f":1},"3":{"2d17f586afb47a0cbfb886b74d5d9745":1}},"title":{"1":{"info":1},"2":{"readme":1},"3":{"worldspan":0.3333333333333333,"lh-ls-lx":0.3333333333333333,"pricing":0.3333333333333333}},"path":{"1":{"nvim":0.3333333333333333,"info":0.3333333333333333,"md":0.3333333333333333},"2":{"readme":0.5,"md":0.5},"3":{"methods":0.2,"worldspan":0.2,"lh-ls-lx":0.2,"pricing":0.2,"md":0.2}},"content":{"1":{"1":0.02,"2":0.02,"3":0.02,"15":0.02,"17":0.02,"22":0.02,"38":0.02,"2025":0.02,"note":0.02,"title":0.02,"info":0.02,"metadata":0.02,"created":0.02,"07":0.02,"01":0.02,"08":0.02,"modified":0.02,"block":0.02,"content":0.02,"install":0.02,"scoop":0.02,"ps":0.02,"d":0.02,"obsidian-mondee":0.02,"set-executionpolicy":0.02,"-executionpolicy":0.02,"remotesigned":0.02,"-scope":0.02,"currentuser":0.02,"invoke-restmethod":0.02,"-uri":0.02,"https":0.02,"get":0.02,"sh":0.02,"invoke-expression":0.02,"neovim":0.02,"create":0.02,"a":0.02,"symbolic":0.02,"link":0.02,"via":0.02,"powershell":0.02,"requires":0.02,"admin":0.02,"privileges":0.02,"cmd":0.02,"c":0.02,"mklink":0.02,"localappdata":0.02,"nvim":0.02},"2":{"20":0.07142857142857142,"34":0.07142857142857142,"2025":0.07142857142857142,"note":0.07142857142857142,"title":0.07142857142857142,"readme":0.07142857142857142,"metadata":0.07142857142857142,"created":0.07142857142857142,"07":0.07142857142857142,"01":0.07142857142857142,"modified":0.07142857142857142,"block":0.07142857142857142,"content":0.07142857142857142,"obsidian-mondee":0.07142857142857142},"3":{"1":0.010526315789473684,"2":0.010526315789473684,"3":0.010526315789473684,"4":0.010526315789473684,"5":0.010526315789473684,"6":0.010526315789473684,"7":0.010526315789473684,"8":0.010526315789473684,"9":0.010526315789473684,"40":0.010526315789473684,"47":0.010526315789473684,"50":0.010526315789473684,"2025":0.010526315789473684,"14709995":0.010526315789473684,"note":0.010526315789473684,"title":0.010526315789473684,"worldspan":0.010526315789473684,"lh-ls-lx":0.010526315789473684,"pricing":0.010526315789473684,"metadata":0.010526315789473684,"created":0.010526315789473684,"07":0.010526315789473684,"01":0.010526315789473684,"modified":0.010526315789473684,"08":0.010526315789473684,"06":0.010526315789473684,"block":0.010526315789473684,"content":0.010526315789473684,"steps":0.010526315789473684,"fqddtwtia":0.010526315789473684,"alh":0.010526315789473684,"d29aug":0.010526315789473684,"cv":0.010526315789473684,"choose":0.010526315789473684,"the":0.010526315789473684,"first":0.010526315789473684,"bag":0.010526315789473684,"fare":0.010526315789473684,"basis":0.010526315789473684,"fqn12":0.010526315789473684,"se":0.010526315789473684,"da":0.010526315789473684,"check":0.010526315789473684,"for":0.010526315789473684,"seasonality":0.010526315789473684,"outbound":0.010526315789473684,"when":0.010526315789473684,"you":0.010526315789473684,"use":0.010526315789473684,"fqd":0.010526315789473684,"and":0.010526315789473684,"same":0.010526315789473684,"with":0.010526315789473684,"inbound":0.010526315789473684,"don't":0.010526315789473684,"look":0.010526315789473684,"at":0.010526315789473684,"both":0.010526315789473684,"entry":0.010526315789473684,"4p":0.010526315789473684,"-s1-2-vk357ncv":0.010526315789473684,"s3-4-qh297ncv":0.010526315789473684,"clh":0.010526315789473684,"k6":0.010526315789473684,"add":0.010526315789473684,"00":0.010526315789473684,"as":0.010526315789473684,"cts":0.010526315789473684,"fees":0.010526315789473684,"md":0.010526315789473684,"move":0.010526315789473684,"down":0.010526315789473684,"to":0.010526315789473684,"error":0.010526315789473684,"save":0.010526315789473684,"price":0.010526315789473684,"ask":0.010526315789473684,"nina":0.010526315789473684,"update":0.010526315789473684,"dk":0.010526315789473684,"number":0.010526315789473684,"store":0.010526315789473684,"request":0.010526315789473684,"waiver":0.010526315789473684,"validating":0.010526315789473684,"carrier":0.010526315789473684,"is":0.010526315789473684,"travel":0.010526315789473684,"from":0.010526315789473684,"one":0.010526315789473684,"country":0.010526315789473684,"another":0.010526315789473684,"office":0.010526315789473684,"star":0.010526315789473684,"partners":0.010526315789473684}},"embeddingModel":{"1":{"text-embedding-004":1},"2":{"text-embedding-004":1},"3":{"text-embedding-004":1}},"tags":{},"extension":{"1":{"md":1},"2":{"md":1},"3":{"md":1}}},"tokenOccurrences":{"id":{"1de6c1ac21f65c1072c21d509d375add":1,"8dc7abf02414bd79395eeb495c856b5f":1,"2d17f586afb47a0cbfb886b74d5d9745":1},"title":{"info":1,"readme":1,"worldspan":1,"lh-ls-lx":1,"pricing":1},"path":{"nvim":1,"info":1,"md":3,"readme":1,"methods":1,"worldspan":1,"lh-ls-lx":1,"pricing":1},"content":{"1":2,"2":2,"3":2,"4":1,"5":1,"6":1,"7":1,"8":1,"9":1,"15":1,"17":1,"20":1,"22":1,"34":1,"38":1,"40":1,"47":1,"50":1,"2025":3,"14709995":1,"note":3,"title":3,"info":1,"metadata":3,"created":3,"07":3,"01":3,"08":2,"modified":3,"block":3,"content":3,"install":1,"scoop":1,"ps":1,"d":1,"obsidian-mondee":2,"set-executionpolicy":1,"-executionpolicy":1,"remotesigned":1,"-scope":1,"currentuser":1,"invoke-restmethod":1,"-uri":1,"https":1,"get":1,"sh":1,"invoke-expression":1,"neovim":1,"create":1,"a":1,"symbolic":1,"link":1,"via":1,"powershell":1,"requires":1,"admin":1,"privileges":1,"cmd":1,"c":1,"mklink":1,"localappdata":1,"nvim":1,"readme":1,"worldspan":1,"lh-ls-lx":1,"pricing":1,"06":1,"steps":1,"fqddtwtia":1,"alh":1,"d29aug":1,"cv":1,"choose":1,"the":1,"first":1,"bag":1,"fare":1,"basis":1,"fqn12":1,"se":1,"da":1,"check":1,"for":1,"seasonality":1,"outbound":1,"when":1,"you":1,"use":1,"fqd":1,"and":1,"same":1,"with":1,"inbound":1,"don't":1,"look":1,"at":1,"both":1,"entry":1,"4p":1,"-s1-2-vk357ncv":1,"s3-4-qh297ncv":1,"clh":1,"k6":1,"add":1,"00":1,"as":1,"cts":1,"fees":1,"md":1,"move":1,"down":1,"to":1,"error":1,"save":1,"price":1,"ask":1,"nina":1,"update":1,"dk":1,"number":1,"store":1,"request":1,"waiver":1,"validating":1,"carrier":1,"is":1,"travel":1,"from":1,"one":1,"country":1,"another":1,"office":1,"star":1,"partners":1},"embeddingModel":{"text-embedding-004":3},"tags":{},"extension":{"md":3}},"avgFieldLength":{"id":1,"title":1.6666666666666667,"path":3.3333333333333335,"content":53,"embeddingModel":1,"tags":0,"extension":1},"fieldLengths":{"id":{"1":1,"2":1,"3":1},"title":{"1":1,"2":1,"3":3},"path":{"1":3,"2":2,"3":5},"content":{"1":50,"2":14,"3":95},"embeddingModel":{"1":1,"2":1,"3":1},"tags":{},"extension":{"1":1,"2":1,"3":1}}},"docs":{"docs":{"1":{"title":"info","path":"nvim/info.md","embeddingModel":"text-embedding-004","ctime":1751372117671,"mtime":1751372558581,"tags":[],"extension":"md","metadata":{"created":"2025/07/01 08:15:17","modified":"2025/07/01 08:22:38"},"id":"1de6c1ac21f65c1072c21d509d375add","content":"\n\nNOTE TITLE: [[info]]\n\nMETADATA:{\"created\":\"2025/07/01 08:15:17\",\"modified\":\"2025/07/01 08:22:38\"}\n\nNOTE BLOCK CONTENT:\n\n1. Install `scoop`\n```\nPS D:\\obsidian-mondee> Set-ExecutionPolicy -ExecutionPolicy RemoteSigned -Scope CurrentUser\nPS D:\\obsidian-mondee> Invoke-RestMethod -Uri https://get.scoop.sh | Invoke-Expression\n```\n\n2. Install `neovim`\n`scoop install neovim`\n\n3. Create a symbolic link via Powershell (requires admin privileges)\n`cmd /c mklink /D \"%LOCALAPPDATA%\\nvim\" \"D:\\obsidian-mondee\\nvim\"`","embedding":[0.0118188625,0.0020088959,-0.06375773,-0.0043184487,0.0063113226,-0.008460545,0.030644814,-0.0060613607,0.011136745,0.019588044,-0.0072324597,0.047356136,-0.000831647,-0.027839405,0.01086728,-0.044212837,0.02317051,-0.008048324,-0.07612399,0.039066274,0.008249981,0.039768286,-0.037609957,-0.030182878,-0.04796744,-0.058938075,0.052957516,-0.037655775,-0.021440404,-0.06691212,-0.0073365388,0.08125546,0.005341137,-0.008777618,-0.0027035996,0.022065189,-0.005338827,0.037741035,0.0056631453,-0.0084686745,-0.06105795,-0.123264335,-0.08192431,0.082930766,0.03199162,0.022199312,0.0069644097,0.056336883,-0.055242393,0.025077302,0.07689144,0.0037655411,-0.023007851,0.039527234,-0.007814803,-0.076495096,-0.051862277,-0.06859994,0.05204738,-0.042789076,-0.014706606,-0.015509742,-0.0111262,0.010356799,-0.077734224,-0.006384251,-0.0065132673,-0.012063463,-0.04459566,0.026450548,-0.062942125,-0.027752304,-0.03444577,-0.029458338,-0.036355373,0.094954714,-0.02867082,0.0072818496,0.016159263,0.06330364,0.028849171,-0.0022192923,0.06309707,0.044376493,0.008494268,0.045304477,-0.007460257,-0.028408948,-0.010076447,-0.038925167,0.03370532,-0.0063428185,0.006326904,-0.0054667727,0.102145106,-0.0076412354,-0.07286853,-0.098440416,0.0010390263,-0.01014959,0.012805121,0.00621741,0.009151199,-0.037434123,0.049743846,-0.0018248641,-0.020869156,-0.03627334,-0.088210344,-0.045714773,-0.021432197,0.010992587,0.052414715,0.03138128,-0.031401828,-0.02650276,0.028770106,0.017055336,-0.0060914257,-0.016652655,0.011420981,0.0041807173,0.031758334,0.034326877,0.024917299,0.0024144782,-0.0094012525,-0.009704032,0.012816278,-0.015452615,0.023426285,-0.06808721,0.010933968,0.00999423,-0.0053521283,0.028447218,0.02763676,0.017234873,0.074891575,0.058658704,-0.048239607,-0.043321155,-0.049843073,0.06486218,0.045457233,-0.02885492,0.019004503,0.036907975,-0.026161775,0.033475474,-0.015307647,0.016643144,-0.013144438,0.027612984,-0.037749536,-0.014783386,0.04130054,-0.071582176,-0.03320319,0.030795699,0.04314589,-0.0054235957,0.02215766,0.011668875,-0.017067485,-0.061010063,-0.046884377,-0.03773331,-0.0145654315,0.034278817,-0.026427602,-0.08713935,-0.04129011,-0.014787643,-0.0049299886,0.04478993,0.0021386934,0.02377188,-0.049756914,0.008555994,0.057004403,0.03776849,0.00433186,-0.054683615,0.0119098425,0.027344493,-0.061368294,0.067607865,0.0011716548,0.03637083,-0.030333156,0.0084932055,0.030038474,0.035188317,-0.021250168,0.011997762,0.036719777,-0.044519026,-0.044054847,-0.027392562,-0.007664245,0.01093045,-0.08975359,0.0012654759,-0.029524138,0.0371105,-0.01831254,-0.010101681,0.01631682,-0.012188662,0.012530108,-0.011455673,0.036238853,0.025529234,0.02005759,-0.019544672,0.023657503,0.052869134,0.11463037,-0.0050538164,-0.03166752,0.0013484154,-0.04509735,0.012312067,-0.0037019963,0.034009546,-0.040526684,-0.0070376433,-0.016962036,-0.043517865,-0.013387222,0.055911083,0.0038071363,0.03510599,0.044937495,0.01705524,0.022987282,-0.031001225,-0.06965958,0.034375176,0.0014217865,0.055908013,0.04727286,0.038227756,0.049072128,-0.009324373,0.01467112,0.025487207,0.012455629,-0.026639944,0.04583756,-0.03647017,-0.0022858682,-0.021006143,-0.07508726,-0.015601025,0.046156242,-0.028327366,0.03700562,-0.01057932,0.088797934,-0.013210562,-0.060824316,-0.037312016,-0.03562331,-0.059935823,0.0052763694,-0.03720954,0.0084688235,-0.01322902,0.077642076,-0.06544957,-0.030185353,-0.036133554,-0.10379946,0.021508504,-0.04246395,-0.011015819,0.0059992042,-0.09406838,-0.011442703,0.0031924383,-0.030042458,-0.039950658,0.03823198,-0.035469294,-0.020480826,-0.010948711,-0.045509543,-0.0034425338,0.018029865,0.0776579,-0.023633461,-0.07319215,0.0034486926,0.025281694,0.034858,0.05367409,0.00023230445,-0.02358171,0.048877567,0.012928826,0.007978219,0.05667806,-0.009100605,0.04318412,-0.07417525,0.02511528,-0.0314278,-0.0070358063,0.0039232266,0.006506298,-0.059468456,-0.020227598,-0.028746838,-0.02058054,-0.1173695,0.034931812,-0.0020708102,0.0001674491,0.020494236,0.024333263,-0.027353097,0.0038077391,-0.025040256,-0.02382679,0.0071308077,0.014079848,-0.0009921927,-0.000012324939,0.028859213,0.039541256,-0.058186367,-0.021301193,-0.0028470554,0.042509392,-0.017164273,0.025938075,0.010966738,0.008129111,-0.03219187,-0.016299447,-0.010571232,0.0424911,-0.03834352,-0.030720927,0.0791334,0.0033263557,0.014515721,0.029149687,0.039006885,0.04969371,0.026401993,0.011517888,-0.022251543,-0.021065788,0.067039214,-0.009065514,0.006670668,0.0001064331,0.021060755,-0.008776657,-0.021648081,0.036764257,0.016099269,-0.0035164761,-0.009874982,0.06228828,-0.039374962,-0.029201595,-0.04810227,-0.028139988,-0.0005084039,-0.0013315269,-0.02217911,-0.0357781,-0.030629326,0.044175006,0.012499132,-0.0424936,-0.01154369,0.035272997,-0.0058010323,0.03296915,0.037225943,0.06683042,-0.056962132,0.021578923,-0.008487023,-0.038597867,-0.027669558,0.025350397,-0.01080077,0.004220775,-0.069512345,0.019173063,-0.017724605,0.0360992,-0.01204174,0.05364108,-0.05090917,-0.001666646,-0.016982205,0.00947753,0.038786873,-0.010202676,0.035610333,0.040649902,0.056754764,0.021956354,-0.0025182099,0.008168196,0.0058602993,0.018333448,0.00671986,0.0015803027,-0.010320989,-0.041229296,0.003395078,0.017764926,-0.022814205,-0.019089634,-0.029841855,0.0071376064,-0.04025614,-0.09627399,-0.05449723,-0.01788569,0.02553072,-0.030011633,0.050402362,0.05480757,-0.026278814,0.03454295,-0.025328917,0.048294634,-0.0009307017,-0.01808675,0.014603,0.038383756,0.022350276,0.012293168,0.09752894,0.008483001,-0.047790196,0.06309431,0.02127435,0.02948221,0.01375876,-0.037702832,-0.0064765657,-0.039552465,0.014790528,-0.019192697,-0.050382,0.02944314,0.038582105,0.031971436,-0.009716778,-0.017466988,-0.03757563,0.038606815,0.05289822,-0.05652124,-0.014502142,-0.044391938,-0.015469491,0.036660537,-0.027278498,-0.0034070346,0.036566034,0.039739102,0.023743864,0.005933064,-0.009130452,0.054233346,0.056512337,0.037061673,0.030796885,0.012112706,-0.05856688,0.041301996,0.013134957,0.006756771,0.054661676,0.0020515132,-0.101742625,-0.0011427831,-0.0046632756,-0.034527484,0.0070953975,0.0017107162,-0.008039575,-0.059543345,-0.01183571,-0.030367183,0.0304262,-0.003349425,-0.003076312,-0.0135057345,0.0057145096,0.054194953,-0.012139174,-0.0025613997,-0.00811895,0.0040527396,-0.026311893,-0.03428993,0.057953082,0.029137362,0.038988072,-0.022205584,0.0002302423,-0.047050264,-0.038735583,0.020946495,-0.022511467,-0.023497354,0.011790194,0.029128158,-0.03956501,-0.044066474,0.016680315,-0.014412759,-0.039031055,0.014923385,0.031538498,0.0033924892,0.044324607,0.056933,0.008377232,0.06057915,0.046545126,0.0003105988,0.011073115,0.044756185,-0.026926063,0.015576807,0.041540667,-0.022649419,-0.032157987,0.028415972,0.030391274,0.02839426,0.074894905,0.055611484,0.03142194,0.050256044,-0.028411798,0.051198356,-0.025704667,-0.016554778,-0.005974054,0.0011673693,0.0030597677,-0.0032895599,-0.0150274355,-0.061151855,-0.020235443,0.018123623,0.05592205,-0.06180162,0.0091144815,-0.020321457,0.027366806,0.014611523,0.010207203,0.037940584,-0.021265136,-0.028027887,-0.030716512,0.0035996055,0.06035271,-0.022678763,0.008025429,0.011414382,-0.03942695,-0.007841879,-0.013678274,0.03331866,0.0039074696,0.0034185273,0.03618097,-0.0014342101,0.0019007789,0.0016977041,0.006330454,-0.06876994,-0.005903218,-0.054791488,-0.0064041433,0.004714435,-0.0199769,0.014508546,0.045234393,-0.024530971,-0.028778924,0.005459106,0.03425918,-0.007886141,0.011920667,0.01298279,0.01880535,-0.023387855,0.0039064465,-0.048066318,0.0151748005,-0.049747285,0.03589018,0.034219727,-0.016785359,0.01588685,-0.057218697,0.016346842,-0.109351605,0.022267636,-0.049583264,0.0108381435,0.00066636846,0.033834342,0.047676947,-0.023727257,-0.029918563,-0.010778042,-0.06055351,-0.022182455,0.024263784,0.007203104,0.05299555,0.01137868,-0.056550197,-0.006597171,0.055705454,-0.023471935,0.016766323,-0.03776552,-0.0053849323,0.03813833,-0.015699549,-0.0146258,0.04457037,-0.00049942173,0.054414876,-0.0042251595,-0.05343121,0.05861787,0.0128635345,0.006098068,0.020807127,0.030261757,-0.03896103,0.06685323,-0.033978954,0.012860042,-0.08422788,0.00889684,-0.08112428,-0.02664428,-0.022036316,-0.07028815,0.0052054883,-0.019019479,0.014069112,0.032646824,-0.005614085,0.010586496,-0.037780065,-0.040096927,0.007567323,-0.0374743,0.029085703,0.0270983,0.03671406,0.013454016,-0.0011046923,-0.014158273,0.01511132,-0.02180975,0.0034847853,0.046942186,-0.052967366,-0.052776463,0.01952312,-0.0038591658,0.052900944,0.009918186,0.019830175,-0.04917315,-0.032694668,0.044140153,-0.006098176,0.0120059075,-0.05664402,0.03838865,-0.046735175,0.029571997,-0.01651157,0.017481964,-0.06508359,-0.022104632,0.010558456,0.018338282,-0.01710962,-0.029120294,0.0074719996,-0.0271218,0.05191799,0.022129845,-0.03316516,0.009587135,-0.057010196,0.06860451,-0.014301581,-0.02523655,0.00085598615,-0.0016358315,0.021625575,0.010487026,0.0037109093,-0.004730447,0.04692891,-0.021064747,0.037875883,0.044935457,0.025731804,-0.021964498,-0.010432167,0.014694207,-0.004229138,0.030705769,-0.020545075,-0.031691436,0.012404442,0.03644076,-0.01246071,-0.0077679893,0.019443307,-0.0249295,-0.03767374,-0.0052016987,-0.013126,-0.044006187,-0.027081296,-0.06499704,-0.033298593,0.04484817,0.00018317254,0.03738221,-0.021191278,-0.060595214,-0.052916948,-0.0148517275,0.0445212,-0.022023963,0.009250285,-0.0011899768,0.05440948,-0.009185958,0.012845342,0.01621229,0.0063521513,0.0034677035,-0.0043491046,-0.04593039,-0.049931496,-0.008323574,0.021280056,0.036938988],"created_at":1751374224056,"nchars":508},"2":{"title":"README","path":"README.md","embeddingModel":"text-embedding-004","ctime":1751369660053,"mtime":1751369660053,"tags":[],"extension":"md","metadata":{"created":"2025/07/01 07:34:20","modified":"2025/07/01 07:34:20"},"id":"8dc7abf02414bd79395eeb495c856b5f","content":"\n\nNOTE TITLE: [[README]]\n\nMETADATA:{\"created\":\"2025/07/01 07:34:20\",\"modified\":\"2025/07/01 07:34:20\"}\n\nNOTE BLOCK CONTENT:\n\n# obsidian-mondee","embedding":[0.04225953,0.032654606,-0.04653218,-0.0044092503,0.014242467,0.04308414,0.046425514,0.02586242,-0.01615434,0.024440825,-0.018590033,0.06863555,0.023696449,-0.0072626406,0.007274768,-0.06598873,0.021802621,-0.002645844,-0.018257612,0.044809528,-0.018120421,0.001959969,-0.01074299,-0.045454755,0.039081328,-0.030898666,0.03951423,-0.018659301,-0.010791422,-0.023346068,0.04730754,0.009948002,0.025940444,-0.028085912,0.0110781845,0.03971975,-0.004087464,0.033782605,-0.002581967,-0.017287478,-0.07221175,-0.030616857,-0.030543964,0.03580518,-0.03334066,-0.009797714,-0.033029553,-0.030155266,-0.049497284,0.02395382,0.05180861,0.048812713,0.00007454904,0.056827385,-0.032187056,-0.064714156,-0.07421568,-0.028568273,0.053033542,-0.0035775993,-0.038338855,-0.0078663025,-0.025236385,-0.011833497,-0.0071262647,-0.033698663,0.038172357,0.028866587,-0.01125445,0.07644939,-0.041890923,-0.00755478,-0.044139456,0.00078786095,-0.040342025,0.020172544,-0.0047284723,-0.0034781168,-0.01297091,0.0010758606,0.019980285,-0.019853337,0.009166454,0.049534544,0.0030999924,0.009328026,0.003212594,-0.034699157,-0.039111763,-0.0058395197,0.049048115,0.031881385,-0.016504914,0.009516775,0.07020607,-0.026964264,-0.06304834,-0.13623965,0.025384098,0.0274281,0.015357018,-0.00012990054,-0.01220844,-0.041369915,0.05048908,-0.012317514,-0.008965351,-0.015454531,-0.078707755,-0.004953474,-0.019953845,0.0021885578,0.020889383,-0.013241365,-0.0057963347,-0.018461833,0.047607433,0.045263305,-0.020360164,0.01016741,0.020774176,0.004679017,-0.040059257,0.061489023,0.03916676,0.0023584382,0.05453976,-0.018549562,-0.009130908,-0.038580388,0.0490399,-0.0660463,-0.018822111,0.040768728,0.034916162,0.03297142,0.009568099,-0.011937127,0.046603896,0.0252341,-0.0034548736,0.024714883,-0.073480144,0.0035532806,-0.011944983,-0.015904926,0.015967876,0.053432006,0.0071549267,0.03370935,-0.058371272,0.02031296,0.032274637,-0.010035649,-0.033676546,-0.05614392,0.062913544,-0.06387932,0.0059984215,0.030163867,0.019841036,-0.0069653643,0.0253616,0.04414875,-0.0145682255,-0.08137312,-0.035559017,-0.0050835563,-0.0065210606,-0.0005222749,-0.034692485,-0.09094406,-0.05220361,-0.0117021855,-0.055831358,0.013845479,0.02796696,-0.007095431,-0.092751145,0.01296718,0.1344715,0.0434568,0.014300501,-0.008992152,-0.010420483,0.02394084,-0.025554297,0.023476537,0.00029955717,0.03673048,-0.025242437,-0.0019160922,-0.0032914437,0.07030976,-0.009763441,-0.00033042955,0.021873806,-0.012332189,-0.07929813,-0.026299026,0.032058585,0.016063457,-0.06213671,0.026815347,-0.04351841,0.04253487,-0.026668264,-0.04361726,0.028332138,-0.01937332,-0.0025706766,-0.020118855,0.026964001,-0.0090274345,0.017106077,-0.0371148,0.08650018,0.01972307,0.055899095,-0.029269176,0.0008141109,-0.012891829,-0.016283251,0.014257393,0.013786779,0.0035325186,-0.04993342,-0.007470366,-0.05898421,-0.060786884,0.017119022,0.038893115,-0.021924458,0.011716349,-0.029447561,0.06582549,0.013601987,-0.043936074,-0.02776205,-0.0043845354,0.017280363,0.0025162306,0.004933595,0.034500375,0.0376816,-0.032946277,0.01598371,-0.0038604315,0.026622385,-0.055806153,0.0119300485,-0.02511613,-0.05541516,-0.004353928,-0.06570078,-0.04400161,0.032818075,0.013220736,0.024794107,-0.028507363,0.014055663,-0.0049327407,-0.05975998,-0.078151464,-0.03646404,-0.06590294,0.020662518,-0.017278278,-0.0060481983,-0.027386203,0.022427488,-0.05383444,-0.080098666,-0.012105568,-0.09728402,0.04411822,-0.058231514,0.015802959,-0.03664382,-0.061140634,0.016472599,0.0016197546,-0.0012045272,0.0022309178,0.06110412,-0.0011663475,-0.028683282,0.037956353,-0.018044943,-0.037301663,0.015612216,0.06537593,-0.045716412,-0.034971,0.035618473,-0.0051743863,0.046415385,0.036827937,0.032213718,0.011957802,0.04491467,0.010402749,-0.015143209,0.0103825955,-0.045340057,0.024967683,-0.05203381,-0.003462142,0.003237265,-0.019605344,-0.009174307,0.0062886104,-0.030712709,0.010011353,-0.029073866,-0.014627697,-0.13831551,-0.012652636,-0.021582566,0.0038718625,0.007156469,0.0036138978,-0.11333821,-0.034000117,0.026940241,-0.012567348,-0.007833982,0.019453717,0.01699522,0.011022732,0.06334574,0.0014796758,-0.011049912,-0.021895517,-0.0077660917,0.07287495,-0.03521615,-0.02463196,0.05526949,0.0401467,0.010310961,-0.016430154,0.027672628,-0.010929134,-0.023989828,0.006866069,0.056605242,-0.038191754,0.038596127,0.0038323356,0.04517886,0.06644103,-0.0227117,0.012990193,0.007935279,-0.012356725,0.026321448,-0.027619652,0.019540912,-0.046504624,-0.006626805,-0.0031878592,-0.007538069,0.056608163,-0.010693658,-0.00020031798,0.0010866855,0.061351277,-0.023690514,-0.031589556,-0.026619645,-0.00029508906,0.017357249,0.008422692,0.005244688,-0.01475836,-0.028577838,0.016454428,0.027063334,-0.047526542,0.007420095,0.02044423,-0.02781731,0.014728339,0.015675733,0.04949687,-0.06355374,0.004176677,0.020725487,-0.02727181,-0.050966892,0.012543346,0.019205205,0.032947026,-0.07162301,0.026869588,0.019269316,0.04109948,-0.009964808,0.02818302,-0.05170128,-0.021297483,0.031116426,-0.0009266918,0.012352838,0.013682703,0.09415157,0.04699126,0.0076053105,-0.007865004,0.02497011,-0.04164754,-0.010837498,-0.0007252437,-0.036231734,-0.024015952,0.021539545,-0.026672676,0.024063066,0.014210436,0.0068518356,-0.003459178,0.023485744,0.032363504,-0.062553614,-0.06058716,-0.023679623,-0.03780527,-0.016778458,-0.02430824,0.027257109,0.039476562,-0.042945348,0.0002092318,-0.022778964,0.04042276,-0.010427146,-0.0068022613,0.012725905,0.037127916,0.0224788,0.060390294,0.078952655,-0.014521319,-0.013783494,0.05793762,0.011443407,0.04102197,-0.021076309,-0.025740936,0.0066633346,-0.022338964,-0.038511414,-0.0051677655,-0.101694025,-0.004889598,0.006938074,0.034459908,0.024849247,-0.041070923,-0.048261546,-0.021728542,0.02593553,-0.046413086,-0.015389409,-0.031820532,-0.032216568,0.006033864,-0.020899056,-0.045981605,0.042914547,0.036471196,0.03853743,-0.0020888806,-0.037823707,0.025727762,0.06987211,-0.011891849,0.028068772,0.026067382,-0.014826401,0.0495458,-0.0041081626,0.0048693116,0.05459659,-0.03347083,-0.018156815,0.019458208,-0.014315295,-0.01014911,0.003909936,0.019588364,-0.019519806,-0.0149032455,-0.005897133,-0.0025402396,0.02048246,-0.01404202,0.009184985,0.046999052,0.040569242,0.0098869195,-0.0038505883,-0.027726477,0.016032675,0.00023581904,-0.023036214,-0.021136748,0.020992745,0.04986464,0.048038278,0.005529563,0.022334034,0.020170424,-0.036130656,-0.00600632,-0.06557524,-0.04385314,0.013805675,-0.01818458,-0.030813785,-0.06503635,0.0545424,0.031091914,-0.027534524,-0.03046727,0.026223477,0.023754394,0.056986753,0.0092370445,-0.034904648,0.10883545,0.04275657,0.02215165,0.018183107,0.02422337,0.0257571,-0.014885167,0.0550309,0.011119294,-0.02979623,-0.0073911655,-0.007979888,0.0254761,0.09048106,0.00056596275,0.013809072,0.029407112,-0.004783188,0.07531484,-0.021091258,-0.01757221,-0.002447587,0.04811393,-0.022829,-0.026669553,0.0009269916,-0.036096133,-0.052865043,0.02281545,0.0120488405,-0.047181856,-0.032717556,0.019398574,0.042493556,-0.005285224,0.010155941,0.04494122,-0.01230844,0.008958266,-0.016890597,-0.022407139,0.05356109,-0.031015722,0.031387314,-0.03519758,-0.059280187,-0.037588738,-0.01482147,0.0021778545,0.02684506,0.002807484,0.110181525,-0.011039823,-0.03723819,0.0074944575,0.015141293,-0.07407422,-0.00005255581,-0.03306697,-0.013563621,0.03999774,-0.007486109,-0.013936172,0.047263652,0.028054895,-0.03380211,-0.030203698,-0.017284555,0.004683906,-0.004565655,-0.017836718,0.031895168,0.013579708,-0.03694745,-0.04368824,-0.011510601,-0.08322546,0.027757399,0.057938557,0.007350342,0.003988728,0.0067150425,-0.031575304,0.002405248,0.00876903,-0.039266612,-0.025537806,0.017674109,0.069838725,0.025571413,0.028164044,-0.072276786,0.017347807,-0.03217773,-0.06253407,0.042123612,0.010922894,0.05678567,-0.0035339892,-0.0648026,-0.004086212,0.04468078,-0.03206839,-0.0068674195,-0.04162431,-0.019671574,0.01891819,0.025745274,-0.057963453,0.035267763,0.066907294,0.07099662,0.01522779,-0.08315236,0.04200281,-0.0164124,0.0014859479,0.023884598,0.024989763,-0.03233135,0.090630054,-0.013177465,0.015649538,-0.064784124,0.008372698,-0.03280455,-0.020647157,-0.01615601,-0.03436422,-0.06256972,-0.03337102,0.020188548,0.039194584,-0.0005093789,-0.040488325,-0.03955143,-0.028769093,-0.02289317,-0.0635899,0.036794122,-0.017240744,0.024669608,0.06748685,0.015220514,-0.032468904,0.05460043,-0.020194234,0.009912568,0.047435824,-0.023677837,-0.044960193,0.011259114,-0.00082381314,0.049272124,0.015517859,-0.008040704,-0.035268947,0.0013952388,-0.031203393,-0.0037985453,-0.028361715,-0.040463928,0.018565955,-0.008140043,0.0061821355,-0.0321914,0.024854457,0.025485255,-0.025816187,-0.01607617,-0.017218642,-0.054938555,-0.013905702,0.018045843,0.0051975474,0.063668616,0.0012077242,-0.011655179,0.020616164,-0.064820684,0.09112874,0.02838501,0.0019617248,0.011979741,0.016799632,0.013404595,0.021789396,0.037899192,0.05377295,0.010035568,-0.02545732,0.033980984,0.049167946,0.037008256,-0.03666637,-0.013374727,0.04884934,-0.025624873,0.029584175,-0.018692574,-0.007398613,-0.023479495,0.04178616,0.01591388,-0.031048445,0.026322702,-0.04434002,-0.027863827,0.031952005,0.034083635,-0.018878648,-0.0287829,-0.04430647,0.03818157,0.01793607,-0.006811931,-0.0095224595,0.01302867,-0.023890607,-0.111068256,-0.01314904,0.040439475,0.038250644,0.00563834,0.006666815,0.020673806,-0.052126065,0.04311658,0.010120595,-0.019483093,0.05787078,-0.0072584976,-0.02116245,-0.08813203,0.022380238,0.034655936,0.0050960933],"created_at":1751374224071,"nchars":141},"3":{"title":"Worldspan LH-LS-LX Pricing","path":"methods/Worldspan LH-LS-LX Pricing.md","embeddingModel":"text-embedding-004","ctime":1751370460375,"mtime":1751371626041,"tags":[],"extension":"md","metadata":{"created":"2025/07/01 07:47:40","modified":"2025/07/01 08:07:06"},"id":"2d17f586afb47a0cbfb886b74d5d9745","content":"\n\nNOTE TITLE: [[Worldspan LH-LS-LX Pricing]]\n\nMETADATA:{\"created\":\"2025/07/01 07:47:40\",\"modified\":\"2025/07/01 08:07:06\"}\n\nNOTE BLOCK CONTENT:\n\n# Pricing Steps\n\n1. FQDDTWTIA/ALH/D29AUG/CV\n2. Choose the first 1 bag fare basis\n3. FQN12*SE,DA\n4. Check for the seasonality for the outbound when you use the FQD for the outbound and the same with the inbound. You don't look at both at the same FQD entry.\n5. 4P*-S1-2-VK357NCV#S3-4-QH297NCV#CLH\n6. k6. Add $50.00 as CTS fees\n7. MD (move down to check the error\n8. 4* (to save the price)\n9. Ask Nina  to update the DK number to store the fare and request the waiver\n\nThe validating carrier is the first to travel from one country to another\n\nOffice for Star Partners 14709995","embedding":[0.10352282,0.0212448,-0.05104041,0.020780675,0.0071002226,0.01518128,-0.0045053363,0.008753688,0.01746622,0.024549942,0.00044001767,0.08465743,0.049759176,-0.015087104,0.010850515,-0.027187884,0.008641546,0.032364268,-0.06523987,-0.031932052,-0.022654723,0.014986541,-0.018614255,0.009728961,0.00075396936,-0.0056492384,0.018237766,-0.03142023,0.02591709,-0.028380593,0.055813696,0.049143422,0.033218313,-0.043620583,-0.037624054,0.048615176,-0.011850987,0.017251978,0.042601667,-0.033605676,-0.06684907,0.012114084,0.025801132,0.01094266,0.025340114,-0.041326262,-0.034865126,-0.045544606,-0.06323207,0.021157721,0.055957533,0.0670755,-0.0336754,0.022941513,-0.0010195401,-0.023642026,-0.013958953,-0.03516618,0.028306017,0.032461353,0.05177444,-0.03789113,-0.0016262076,0.04754713,-0.031126881,-0.06849875,0.020097286,-0.002807908,-0.07084863,-0.00011980088,-0.016916513,0.021604015,-0.07704659,0.04290879,0.028456181,-0.013429264,-0.020211501,0.012421031,0.040728375,0.09380216,0.005883691,0.005810733,0.038997117,0.010326673,0.034946054,-0.040718053,-0.0016698043,-0.014879122,-0.053272832,0.011121849,0.03305496,0.022338727,-0.031435363,-0.023835178,0.13620956,0.013535523,-0.096963555,-0.10555162,0.06420112,0.07078637,-0.027067961,0.053424112,-0.04355122,0.006203778,-0.0010801441,0.010137422,-0.025568321,-0.06416462,-0.08585962,0.000688594,-0.008147428,-0.03611092,-0.008747755,0.025539875,-0.060430758,-0.053428724,0.033408422,0.042958304,-0.033486627,0.027268507,0.010894788,0.036104925,0.0029595525,0.05546179,0.022247663,0.028797332,-0.0065417686,0.00056682166,-0.03123666,-0.013718156,0.039473716,-0.021000275,0.011861251,0.01316969,-0.06443122,-0.0045368024,0.015315004,0.049560897,0.015832694,0.013616425,-0.038624015,-0.07254736,-0.110217914,0.020360935,0.032239962,-0.040171415,0.03083181,0.06881623,-0.03945603,0.047878794,-0.045741387,-0.014412243,0.0066931974,-0.0016070182,-0.020618642,0.0032965129,-0.026788458,-0.04735964,0.04813118,0.008806754,0.014617321,-0.0057522473,0.034478348,0.006075686,0.02126116,-0.03187762,-0.0769186,-0.015116991,-0.05555574,-0.00417948,-0.037007418,-0.022941375,-0.017945543,-0.013691358,-0.010940805,-0.03634698,0.053504422,-0.007012251,-0.026743809,0.010053343,0.104342155,0.023053633,-0.0089526735,-0.012137335,0.067912355,0.023042373,-0.014472609,-0.014986426,0.04597154,0.018581793,-0.00155222,0.020528058,-0.037935767,0.0102894325,0.0009885271,0.0036258628,0.030228704,-0.03659053,-0.017174324,-0.056327455,0.038611516,-0.012347882,-0.015279453,-0.012379512,0.0026935416,0.022540016,-0.014951754,-0.002369759,-0.021611283,0.028807648,-0.008225806,-0.0103099095,-0.07640668,-0.034582168,-0.007804411,0.012384213,0.04552428,0.018949945,0.041507218,-0.010651182,-0.026305016,-0.019980315,0.017918592,0.08309477,0.042044044,-0.01528848,0.003365738,-0.00015159333,-0.020738648,-0.09074202,0.015067087,0.05244514,-0.003928678,0.018669909,-0.004960828,0.06268878,0.015894193,0.021599295,-0.036756694,0.008726164,0.014879747,-0.048193976,0.032748252,-0.035596043,0.055544335,0.051650535,0.022688415,-0.013640975,-0.013248976,-0.06335788,-0.034080707,0.04667994,-0.020199502,-0.0019169658,0.0028636146,0.0613456,0.044506505,0.005842224,0.003536851,-0.013387063,0.010600982,-0.058554772,-0.002301587,0.0048186965,-0.058622375,-0.047809854,-0.043888543,-0.027095193,-0.0044739447,0.033825766,0.037478007,-0.063466914,-0.060135115,-0.020598887,-0.029920122,0.018176546,-0.022215972,0.03644405,-0.0523574,-0.042627137,-0.011518216,-0.002782979,0.006782271,-0.044578224,0.03441101,-0.08629231,-0.00018006322,-0.034418173,0.007195246,-0.034583338,0.061483238,0.050785698,-0.006219367,-0.060246676,0.025684128,0.024488859,0.035123933,0.07882418,-0.007911153,0.042778935,0.010236383,-0.00074169424,-0.00062867696,0.05359627,-0.04921384,-0.006951367,-0.03990774,-0.005071357,-0.00573482,0.005052463,0.032525007,0.07790953,0.015294806,-0.023209637,-0.034531746,0.0107413195,-0.11884382,-0.052089952,-0.033635926,0.029839853,0.022320895,-0.015085651,-0.01419133,0.032142695,0.023996435,0.0029981215,-0.0017897935,0.0044696247,0.010900834,-0.03538236,0.030028831,0.016178073,0.010677666,-0.030369092,0.012664845,0.0061494275,-0.040236223,-0.0006988709,0.04286528,-0.006515506,0.063360855,0.022487335,0.0060782004,0.015901677,0.02906753,-0.022390282,-0.058186688,0.011543259,-0.022453684,0.07462709,0.041401185,0.026243553,0.021654677,0.010969973,0.041438326,0.062306963,0.042534225,0.02681845,0.06359697,-0.04063859,-0.006798176,-0.008407391,-0.043793384,0.041164286,-0.027560415,-0.0075674485,0.0020322911,0.047999676,0.0122338915,-0.005924338,0.0063969153,0.004266493,0.021664208,-0.056031473,0.01928405,-0.017083311,-0.018782368,-0.0051538455,0.043822523,-0.017625716,-0.029531553,0.0019786481,-0.007399605,-0.033562433,-0.04141741,0.05041045,-0.044392254,0.004718176,-0.05937724,-0.013067371,-0.02463932,0.026206601,0.024331456,-0.0074297898,-0.015801305,0.07124835,-0.025348438,0.00018276881,0.00087027973,0.006834571,-0.04225095,0.010775979,0.079972066,-0.037622936,0.022469189,0.021250747,0.07000791,0.008121262,-0.05458133,0.08652489,0.042464815,-0.015104472,-0.021990651,0.03898164,0.034180734,0.002887031,0.034751657,-0.010855356,0.050301086,0.055616815,-0.02758644,0.034373794,0.019698616,0.022313174,-0.020899333,-0.07292432,0.010638642,0.003281153,-0.005410165,0.0061881985,0.027984662,0.058937587,-0.021543246,0.023004461,-0.007255872,0.045307554,0.0038905602,0.015435536,0.013221363,0.022917591,-0.007909998,0.02543068,0.050488025,0.005478775,0.00029032215,0.039133307,-0.0059289485,0.0015795426,-0.019504104,-0.031992335,-0.0032208408,-0.010671499,0.011016123,-0.045285963,-0.097115174,0.031933278,0.022979034,-0.020375546,-0.012855314,-0.017511833,-0.034852605,-0.018105887,0.017279277,0.028252393,-0.035100356,-0.008584383,-0.056342393,0.033412766,0.06109544,0.037054706,0.02328515,0.0045230007,-0.008265465,0.012473381,-0.034215905,0.0026468579,0.005732274,0.011320778,-0.078904696,-0.010672076,-0.06924141,-0.011086671,-0.046784557,0.038642272,0.04828509,-0.023359431,-0.0078092613,0.03604979,-0.024124911,0.023917543,0.00978336,0.050766625,-0.026833726,-0.022817777,0.0033786113,-0.0022256481,0.058710035,0.037497252,-0.024734937,0.06786386,0.08735683,0.035079956,0.019469373,-0.010160764,-0.008340487,0.025792837,-0.03688383,-0.010695513,0.025491135,0.026794473,0.055340763,-0.044253536,0.000007463644,0.017432239,-0.012128311,0.0075502093,-0.034882102,-0.014943375,-0.019999972,0.06559955,-0.034966398,-0.020111145,0.047459126,-0.041716225,0.007978527,-0.016120408,-0.023963343,-0.005015855,0.024125142,-0.016695812,0.029765248,0.049059547,0.0047521056,0.011252701,0.032596625,0.012702092,0.08532181,-0.012168583,0.031069392,0.025225552,0.049801018,0.041704927,-0.0024543344,0.05046313,0.04208632,0.047193587,0.017240798,-0.0005486321,-0.043162145,0.025535405,-0.018889366,-0.028774895,-0.038262114,-0.013586923,0.06801279,-0.03315724,-0.0098275365,-0.048843544,-0.02550346,-0.019840738,0.02830121,-0.018864011,-0.043822438,0.015904574,-0.011668346,-0.024009328,-0.011730011,0.06997613,0.009746945,-0.0017919743,0.016443571,-0.0030621905,0.0045779576,0.012560435,0.029769363,-0.020296425,-0.035083104,-0.029182946,0.017231217,0.011871452,-0.010617182,-0.01254033,0.060562607,0.0085914405,0.023460723,-0.02843314,0.009064407,-0.018392997,0.030110478,-0.008619135,-0.006778282,0.02829172,-0.008362925,-0.042268258,-0.017232964,-0.039140627,-0.04930906,-0.011353911,0.010872754,-0.017876133,0.0026985735,-0.016842263,0.02852986,-0.021967383,-0.019628191,-0.04276537,-0.018615587,-0.082530096,-0.041407652,0.022817858,-0.0153560545,0.06096088,-0.050435092,-0.058219023,-0.050245576,0.000008797484,-0.033737693,0.012114903,0.01044175,0.0083580185,0.043557283,0.034095805,0.0066054114,-0.024572507,0.0072807185,0.024747713,0.0020559584,0.020465381,0.014446446,0.026429672,0.0038658213,-0.007934226,0.067265116,-0.021666037,-0.025818415,-0.0030790865,-0.0050946786,0.0036162362,0.047524378,-0.0343158,-0.030607052,0.042768896,0.08515338,-0.0069926623,-0.07540685,-0.011200627,0.021906644,0.011574503,0.019666377,0.020960549,-0.020601077,0.05473516,0.01492723,0.007368869,-0.02490058,0.028416667,-0.021488374,-0.033451907,0.0030535185,-0.04713213,-0.012672458,-0.054360196,0.0063889595,0.045230914,-0.022382928,0.005606966,-0.06308401,-0.037090506,-0.020030124,-0.0130520025,-0.006202225,-0.047986522,0.020068666,0.019035283,0.033919163,-0.046814617,0.04199244,-0.010347513,-0.029351978,0.06379757,-0.027713342,-0.004216722,0.026938802,-0.026502745,-0.017938899,0.0076715667,-0.024729664,-0.026707219,-0.010067527,0.02955864,0.027670667,0.0038788693,-0.010583058,0.06562742,-0.005319392,0.034481853,-0.009537431,0.011391287,-0.047146767,-0.005517494,-0.009759226,-0.024159973,-0.06587142,-0.07309145,0.020157268,-0.0041268747,0.0615563,0.09040402,-0.0005500711,0.032263316,-0.014774665,0.03218272,0.13184322,-0.0001776661,-0.017412225,0.019120866,0.024517456,0.05510211,-0.031278916,0.0064542247,0.029096918,-0.05831917,-0.012831366,0.053238988,0.017858608,0.009129587,-0.058538042,-0.026783474,0.014348352,0.034735125,-0.03451422,0.0101886,-0.018224096,-0.028014692,-0.03960689,-0.03769242,-0.0065093655,-0.015415352,-0.022181155,-0.01908549,0.007455538,-0.032115035,-0.09137003,-0.047702342,0.0031918203,0.025189376,0.02970006,-0.03374351,-0.022176927,-0.05880595,-0.086654365,0.0007323238,0.0045529297,0.02506763,0.028543606,-0.010583018,0.034407925,-0.0064889984,0.0022425943,0.027155723,-0.021148043,0.06017895,-0.00879722,-0.025869943,-0.06848583,-0.02072838,0.049199563,-0.033378437],"created_at":1751374224074,"nchars":719}},"count":3},"sorting":{"language":"english","sortableProperties":["id","title","path","content","embeddingModel","created_at","ctime","mtime","extension"],"sortablePropertiesWithTypes":{"id":"string","title":"string","path":"string","content":"string","embeddingModel":"string","created_at":"number","ctime":"number","mtime":"number","extension":"string"},"sorts":{"id":{"docs":{"1":0,"2":2,"3":1},"orderedDocs":[[1,"1de6c1ac21f65c1072c21d509d375add"],[3,"2d17f586afb47a0cbfb886b74d5d9745"],[2,"8dc7abf02414bd79395eeb495c856b5f"]],"type":"string"},"title":{"docs":{"1":0,"2":1,"3":2},"orderedDocs":[[1,"info"],[2,"README"],[3,"Worldspan LH-LS-LX Pricing"]],"type":"string"},"path":{"docs":{"1":1,"2":2,"3":0},"orderedDocs":[[3,"methods/Worldspan LH-LS-LX Pricing.md"],[1,"nvim/info.md"],[2,"README.md"]],"type":"string"},"content":{"docs":{"1":0,"2":1,"3":2},"orderedDocs":[[1,"\n\nNOTE TITLE: [[info]]\n\nMETADATA:{\"created\":\"2025/07/01 08:15:17\",\"modified\":\"2025/07/01 08:22:38\"}\n\nNOTE BLOCK CONTENT:\n\n1. Install `scoop`\n```\nPS D:\\obsidian-mondee> Set-ExecutionPolicy -ExecutionPolicy RemoteSigned -Scope CurrentUser\nPS D:\\obsidian-mondee> Invoke-RestMethod -Uri https://get.scoop.sh | Invoke-Expression\n```\n\n2. Install `neovim`\n`scoop install neovim`\n\n3. Create a symbolic link via Powershell (requires admin privileges)\n`cmd /c mklink /D \"%LOCALAPPDATA%\\nvim\" \"D:\\obsidian-mondee\\nvim\"`"],[2,"\n\nNOTE TITLE: [[README]]\n\nMETADATA:{\"created\":\"2025/07/01 07:34:20\",\"modified\":\"2025/07/01 07:34:20\"}\n\nNOTE BLOCK CONTENT:\n\n# obsidian-mondee"],[3,"\n\nNOTE TITLE: [[Worldspan LH-LS-LX Pricing]]\n\nMETADATA:{\"created\":\"2025/07/01 07:47:40\",\"modified\":\"2025/07/01 08:07:06\"}\n\nNOTE BLOCK CONTENT:\n\n# Pricing Steps\n\n1. FQDDTWTIA/ALH/D29AUG/CV\n2. 